<?xml version="1.0" encoding="UTF-8" standalone="yes"?>
<PMML xmlns="http://www.dmg.org/PMML-4_3" version="4.3">
	<Header>
		<Application name="JPMML-R" version="1.2.20"/>
		<Timestamp>2018-01-11T20:13:31Z</Timestamp>
	</Header>
	<DataDictionary>
		<DataField name="UTILITY_INCREASE" optype="continuous" dataType="float"/>
		<DataField name="CRITICALITY" optype="continuous" dataType="integer"/>
		<DataField name="RELIABILITY" optype="continuous" dataType="float"/>
		<DataField name="IMPORTANCE" optype="continuous" dataType="integer"/>
		<DataField name="PROVIDED_INTERFACE" optype="continuous" dataType="integer"/>
		<DataField name="REQUIRED_INTERFACE" optype="continuous" dataType="integer"/>
		<DataField name="REPLICA" optype="continuous" dataType="integer"/>
		<DataField name="REQUEST" optype="continuous" dataType="integer"/>
		<DataField name="ADT" optype="continuous" dataType="float"/>
		<DataField name="PMax" optype="continuous" dataType="float"/>
	</DataDictionary>
	<MiningModel functionName="regression" x-mathContext="float">
		<MiningSchema>
			<MiningField name="UTILITY_INCREASE" usageType="target"/>
			<MiningField name="IMPORTANCE"/>
			<MiningField name="REQUEST"/>
			<MiningField name="CRITICALITY"/>
			<MiningField name="ADT"/>
			<MiningField name="REQUIRED_INTERFACE"/>
			<MiningField name="RELIABILITY"/>
			<MiningField name="PMax"/>
			<MiningField name="PROVIDED_INTERFACE"/>
			<MiningField name="REPLICA"/>
		</MiningSchema>
		<Targets>
			<Target field="UTILITY_INCREASE" rescaleConstant="0.5"/>
		</Targets>
		<Segmentation multipleModelMethod="sum">
			<Segment id="1">
				<True/>
				<TreeModel functionName="regression" missingValueStrategy="none" noTrueChildStrategy="returnLastPrediction" splitCharacteristic="multiSplit" x-mathContext="float">
					<MiningSchema>
						<MiningField name="CRITICALITY"/>
						<MiningField name="RELIABILITY"/>
						<MiningField name="IMPORTANCE"/>
						<MiningField name="PROVIDED_INTERFACE"/>
						<MiningField name="REQUIRED_INTERFACE"/>
					</MiningSchema>
					<Node score="1.5463122">
						<True/>
						<Node score="4.091147">
							<SimplePredicate field="PROVIDED_INTERFACE" operator="greaterOrEqual" value="10"/>
							<Node score="148.35245">
								<SimplePredicate field="IMPORTANCE" operator="greaterOrEqual" value="9"/>
								<Node score="107.098145">
									<SimplePredicate field="PROVIDED_INTERFACE" operator="greaterOrEqual" value="16"/>
									<Node score="670.1733">
										<SimplePredicate field="CRITICALITY" operator="greaterOrEqual" value="9"/>
									</Node>
								</Node>
								<Node score="310.04358">
									<SimplePredicate field="REQUIRED_INTERFACE" operator="greaterOrEqual" value="1"/>
									<Node score="441.63507">
										<SimplePredicate field="PROVIDED_INTERFACE" operator="greaterOrEqual" value="11"/>
									</Node>
								</Node>
							</Node>
							<Node score="30.638525">
								<SimplePredicate field="IMPORTANCE" operator="greaterOrEqual" value="4"/>
								<Node score="273.1216">
									<SimplePredicate field="PROVIDED_INTERFACE" operator="greaterOrEqual" value="18"/>
									<Node score="411.92996">
										<SimplePredicate field="IMPORTANCE" operator="greaterOrEqual" value="6"/>
									</Node>
								</Node>
								<Node score="149.32619">
									<SimplePredicate field="REQUIRED_INTERFACE" operator="greaterOrEqual" value="1"/>
									<Node score="235.43965">
										<SimplePredicate field="IMPORTANCE" operator="greaterOrEqual" value="6"/>
									</Node>
								</Node>
								<Node score="69.98504">
									<SimplePredicate field="IMPORTANCE" operator="greaterOrEqual" value="5"/>
								</Node>
							</Node>
							<Node score="27.65565">
								<SimplePredicate field="IMPORTANCE" operator="greaterOrEqual" value="2"/>
								<Node score="27.997595">
									<SimplePredicate field="PROVIDED_INTERFACE" operator="greaterOrEqual" value="19"/>
									<Node score="148.1255">
										<SimplePredicate field="CRITICALITY" operator="greaterOrEqual" value="9"/>
									</Node>
								</Node>
								<Node score="82.86624">
									<SimplePredicate field="REQUIRED_INTERFACE" operator="greaterOrEqual" value="1"/>
								</Node>
							</Node>
							<Node score="52.70694">
								<SimplePredicate field="PROVIDED_INTERFACE" operator="greaterOrEqual" value="16"/>
							</Node>
							<Node score="25.679314">
								<SimplePredicate field="CRITICALITY" operator="greaterOrEqual" value="9"/>
							</Node>
						</Node>
						<Node score="36.31658">
							<SimplePredicate field="IMPORTANCE" operator="greaterOrEqual" value="9"/>
							<Node score="145.55652">
								<SimplePredicate field="RELIABILITY" operator="greaterOrEqual" value="0.675"/>
								<Node score="129.52806">
									<SimplePredicate field="PROVIDED_INTERFACE" operator="greaterOrEqual" value="6"/>
									<Node score="330.82114">
										<SimplePredicate field="IMPORTANCE" operator="greaterOrEqual" value="10"/>
									</Node>
								</Node>
								<Node score="208.72203">
									<SimplePredicate field="IMPORTANCE" operator="greaterOrEqual" value="11"/>
								</Node>
							</Node>
							<Node score="68.39573">
								<SimplePredicate field="CRITICALITY" operator="greaterOrEqual" value="9"/>
								<Node score="104.42552">
									<SimplePredicate field="REQUIRED_INTERFACE" operator="greaterOrEqual" value="2"/>
									<Node score="177.02332">
										<SimplePredicate field="PROVIDED_INTERFACE" operator="greaterOrEqual" value="3"/>
									</Node>
								</Node>
								<Node score="101.66408">
									<SimplePredicate field="PROVIDED_INTERFACE" operator="greaterOrEqual" value="3"/>
								</Node>
							</Node>
							<Node score="53.76845">
								<SimplePredicate field="CRITICALITY" operator="greaterOrEqual" value="7"/>
								<Node score="71.308914">
									<SimplePredicate field="IMPORTANCE" operator="greaterOrEqual" value="13"/>
								</Node>
							</Node>
							<Node score="63.288136">
								<SimplePredicate field="PROVIDED_INTERFACE" operator="greaterOrEqual" value="3"/>
							</Node>
						</Node>
						<Node score="13.514619">
							<SimplePredicate field="RELIABILITY" operator="greaterOrEqual" value="0.675"/>
							<Node score="62.523987">
								<SimplePredicate field="IMPORTANCE" operator="greaterOrEqual" value="5"/>
								<Node score="133.58374">
									<SimplePredicate field="PROVIDED_INTERFACE" operator="greaterOrEqual" value="5"/>
								</Node>
								<Node score="94.96808">
									<SimplePredicate field="IMPORTANCE" operator="greaterOrEqual" value="6"/>
								</Node>
							</Node>
							<Node score="51.103504">
								<SimplePredicate field="IMPORTANCE" operator="greaterOrEqual" value="3"/>
								<Node score="86.19565">
									<SimplePredicate field="PROVIDED_INTERFACE" operator="greaterOrEqual" value="6"/>
								</Node>
							</Node>
							<Node score="34.38715">
								<SimplePredicate field="IMPORTANCE" operator="greaterOrEqual" value="2"/>
							</Node>
						</Node>
						<Node score="24.171808">
							<SimplePredicate field="IMPORTANCE" operator="greaterOrEqual" value="5"/>
							<Node score="34.832504">
								<SimplePredicate field="REQUIRED_INTERFACE" operator="greaterOrEqual" value="2"/>
								<Node score="52.537704">
									<SimplePredicate field="CRITICALITY" operator="greaterOrEqual" value="9"/>
								</Node>
							</Node>
							<Node score="41.267437">
								<SimplePredicate field="PROVIDED_INTERFACE" operator="greaterOrEqual" value="3"/>
							</Node>
						</Node>
						<Node score="13.253103">
							<SimplePredicate field="IMPORTANCE" operator="greaterOrEqual" value="3"/>
							<Node score="22.15812">
								<SimplePredicate field="CRITICALITY" operator="greaterOrEqual" value="9"/>
							</Node>
						</Node>
						<Node score="7.1506724">
							<SimplePredicate field="IMPORTANCE" operator="greaterOrEqual" value="2"/>
						</Node>
					</Node>
				</TreeModel>
			</Segment>
			<Segment id="2">
				<True/>
				<TreeModel functionName="regression" missingValueStrategy="none" noTrueChildStrategy="returnLastPrediction" splitCharacteristic="multiSplit" x-mathContext="float">
					<MiningSchema>
						<MiningField name="CRITICALITY"/>
						<MiningField name="RELIABILITY"/>
						<MiningField name="IMPORTANCE"/>
						<MiningField name="PROVIDED_INTERFACE"/>
						<MiningField name="REQUIRED_INTERFACE"/>
					</MiningSchema>
					<Node score="1.0835152">
						<True/>
						<Node score="6.81024">
							<SimplePredicate field="PROVIDED_INTERFACE" operator="greaterOrEqual" value="10"/>
							<Node score="112.61285">
								<SimplePredicate field="IMPORTANCE" operator="greaterOrEqual" value="10"/>
								<Node score="401.6397">
									<SimplePredicate field="PROVIDED_INTERFACE" operator="greaterOrEqual" value="17"/>
									<Node score="587.4649">
										<SimplePredicate field="PROVIDED_INTERFACE" operator="greaterOrEqual" value="21"/>
									</Node>
								</Node>
								<Node score="200.75737">
									<SimplePredicate field="REQUIRED_INTERFACE" operator="greaterOrEqual" value="1"/>
									<Node score="277.79764">
										<SimplePredicate field="IMPORTANCE" operator="greaterOrEqual" value="12"/>
										<Node score="370.5182">
											<SimplePredicate field="PROVIDED_INTERFACE" operator="greaterOrEqual" value="13"/>
										</Node>
									</Node>
								</Node>
							</Node>
							<Node score="23.744854">
								<SimplePredicate field="IMPORTANCE" operator="greaterOrEqual" value="4"/>
								<Node score="177.60387">
									<SimplePredicate field="PROVIDED_INTERFACE" operator="greaterOrEqual" value="15"/>
									<Node score="378.26514">
										<SimplePredicate field="PROVIDED_INTERFACE" operator="greaterOrEqual" value="29"/>
									</Node>
									<Node score="252.7449">
										<SimplePredicate field="IMPORTANCE" operator="greaterOrEqual" value="7"/>
									</Node>
								</Node>
								<Node score="102.945656">
									<SimplePredicate field="REQUIRED_INTERFACE" operator="greaterOrEqual" value="1"/>
									<Node score="167.9104">
										<SimplePredicate field="IMPORTANCE" operator="greaterOrEqual" value="7"/>
									</Node>
								</Node>
								<Node score="50.22456">
									<SimplePredicate field="IMPORTANCE" operator="greaterOrEqual" value="5"/>
								</Node>
							</Node>
							<Node score="13.703542">
								<SimplePredicate field="IMPORTANCE" operator="greaterOrEqual" value="3"/>
								<Node score="32.502163">
									<SimplePredicate field="PROVIDED_INTERFACE" operator="greaterOrEqual" value="12"/>
									<Node score="101.93218">
										<SimplePredicate field="REQUIRED_INTERFACE" operator="greaterOrEqual" value="1"/>
									</Node>
								</Node>
								<Node score="48.483387">
									<SimplePredicate field="CRITICALITY" operator="greaterOrEqual" value="9"/>
								</Node>
							</Node>
							<Node score="34.506123">
								<SimplePredicate field="PROVIDED_INTERFACE" operator="greaterOrEqual" value="13"/>
								<Node score="62.212082">
									<SimplePredicate field="IMPORTANCE" operator="greaterOrEqual" value="2"/>
								</Node>
							</Node>
							<Node score="22.15067">
								<SimplePredicate field="REQUIRED_INTERFACE" operator="greaterOrEqual" value="1"/>
							</Node>
						</Node>
						<Node score="28.319242">
							<SimplePredicate field="IMPORTANCE" operator="greaterOrEqual" value="10"/>
							<Node score="94.71153">
								<SimplePredicate field="RELIABILITY" operator="greaterOrEqual" value="0.675"/>
								<Node score="256.6049">
									<SimplePredicate field="PROVIDED_INTERFACE" operator="greaterOrEqual" value="7"/>
								</Node>
								<Node score="130.2691">
									<SimplePredicate field="PROVIDED_INTERFACE" operator="greaterOrEqual" value="5"/>
									<Node score="182.86691">
										<SimplePredicate field="IMPORTANCE" operator="greaterOrEqual" value="13"/>
									</Node>
								</Node>
								<Node score="133.46008">
									<SimplePredicate field="IMPORTANCE" operator="greaterOrEqual" value="13"/>
								</Node>
							</Node>
							<Node score="41.56102">
								<SimplePredicate field="REQUIRED_INTERFACE" operator="greaterOrEqual" value="2"/>
								<Node score="75.77507">
									<SimplePredicate field="CRITICALITY" operator="greaterOrEqual" value="9"/>
									<Node score="132.23889">
										<SimplePredicate field="PROVIDED_INTERFACE" operator="greaterOrEqual" value="3"/>
									</Node>
								</Node>
								<Node score="57.219845">
									<SimplePredicate field="IMPORTANCE" operator="greaterOrEqual" value="12"/>
								</Node>
							</Node>
							<Node score="52.15594">
								<SimplePredicate field="PROVIDED_INTERFACE" operator="greaterOrEqual" value="3"/>
								<Node score="71.75989">
									<SimplePredicate field="IMPORTANCE" operator="greaterOrEqual" value="13"/>
								</Node>
							</Node>
							<Node score="43.326893">
								<SimplePredicate field="CRITICALITY" operator="greaterOrEqual" value="8"/>
							</Node>
						</Node>
						<Node score="9.303165">
							<SimplePredicate field="RELIABILITY" operator="greaterOrEqual" value="0.675"/>
							<Node score="51.489365">
								<SimplePredicate field="IMPORTANCE" operator="greaterOrEqual" value="5"/>
								<Node score="89.29531">
									<SimplePredicate field="PROVIDED_INTERFACE" operator="greaterOrEqual" value="6"/>
									<Node score="133.37775">
										<SimplePredicate field="IMPORTANCE" operator="greaterOrEqual" value="7"/>
									</Node>
								</Node>
								<Node score="85.045296">
									<SimplePredicate field="IMPORTANCE" operator="greaterOrEqual" value="7"/>
								</Node>
							</Node>
							<Node score="36.186806">
								<SimplePredicate field="IMPORTANCE" operator="greaterOrEqual" value="3"/>
								<Node score="61.51235">
									<SimplePredicate field="PROVIDED_INTERFACE" operator="greaterOrEqual" value="6"/>
								</Node>
							</Node>
							<Node score="25.36673">
								<SimplePredicate field="PROVIDED_INTERFACE" operator="greaterOrEqual" value="6"/>
							</Node>
						</Node>
						<Node score="12.184838">
							<SimplePredicate field="IMPORTANCE" operator="greaterOrEqual" value="6"/>
							<Node score="25.710861">
								<SimplePredicate field="CRITICALITY" operator="greaterOrEqual" value="7"/>
								<Node score="36.539726">
									<SimplePredicate field="CRITICALITY" operator="greaterOrEqual" value="9"/>
								</Node>
							</Node>
							<Node score="30.995409">
								<SimplePredicate field="PROVIDED_INTERFACE" operator="greaterOrEqual" value="4"/>
							</Node>
						</Node>
						<Node score="5.456997">
							<SimplePredicate field="IMPORTANCE" operator="greaterOrEqual" value="4"/>
							<Node score="16.072206">
								<SimplePredicate field="CRITICALITY" operator="greaterOrEqual" value="7"/>
							</Node>
						</Node>
						<Node score="7.041117">
							<SimplePredicate field="IMPORTANCE" operator="greaterOrEqual" value="2"/>
						</Node>
					</Node>
				</TreeModel>
			</Segment>
			<Segment id="3">
				<True/>
				<TreeModel functionName="regression" missingValueStrategy="none" noTrueChildStrategy="returnLastPrediction" splitCharacteristic="multiSplit" x-mathContext="float">
					<MiningSchema>
						<MiningField name="CRITICALITY"/>
						<MiningField name="RELIABILITY"/>
						<MiningField name="IMPORTANCE"/>
						<MiningField name="PROVIDED_INTERFACE"/>
						<MiningField name="REQUIRED_INTERFACE"/>
						<MiningField name="REQUEST"/>
					</MiningSchema>
					<Node score="0.74693084">
						<True/>
						<Node score="11.781468">
							<SimplePredicate field="PROVIDED_INTERFACE" operator="greaterOrEqual" value="8"/>
							<Node score="69.14621">
								<SimplePredicate field="IMPORTANCE" operator="greaterOrEqual" value="10"/>
								<Node score="106.20237">
									<SimplePredicate field="PROVIDED_INTERFACE" operator="greaterOrEqual" value="15"/>
									<Node score="296.04047">
										<SimplePredicate field="REQUIRED_INTERFACE" operator="greaterOrEqual" value="1"/>
										<Node score="423.814">
											<SimplePredicate field="PROVIDED_INTERFACE" operator="greaterOrEqual" value="21"/>
										</Node>
									</Node>
								</Node>
								<Node score="144.12642">
									<SimplePredicate field="REQUIRED_INTERFACE" operator="greaterOrEqual" value="1"/>
									<Node score="218.96803">
										<SimplePredicate field="IMPORTANCE" operator="greaterOrEqual" value="13"/>
									</Node>
								</Node>
							</Node>
							<Node score="25.193346">
								<SimplePredicate field="IMPORTANCE" operator="greaterOrEqual" value="5"/>
								<Node score="244.71584">
									<SimplePredicate field="PROVIDED_INTERFACE" operator="greaterOrEqual" value="21"/>
								</Node>
								<Node score="96.19218">
									<SimplePredicate field="REQUIRED_INTERFACE" operator="greaterOrEqual" value="1"/>
									<Node score="134.25778">
										<SimplePredicate field="PROVIDED_INTERFACE" operator="greaterOrEqual" value="13"/>
									</Node>
								</Node>
								<Node score="46.167225">
									<SimplePredicate field="IMPORTANCE" operator="greaterOrEqual" value="7"/>
								</Node>
							</Node>
							<Node score="51.093582">
								<SimplePredicate field="PROVIDED_INTERFACE" operator="greaterOrEqual" value="20"/>
								<Node score="114.010704">
									<SimplePredicate field="IMPORTANCE" operator="greaterOrEqual" value="3"/>
								</Node>
							</Node>
							<Node score="21.067741">
								<SimplePredicate field="IMPORTANCE" operator="greaterOrEqual" value="3"/>
								<Node score="54.32661">
									<SimplePredicate field="REQUIRED_INTERFACE" operator="greaterOrEqual" value="1"/>
								</Node>
							</Node>
							<Node score="25.614023">
								<SimplePredicate field="REQUEST" operator="greaterOrEqual" value="548"/>
							</Node>
						</Node>
						<Node score="15.331403">
							<SimplePredicate field="IMPORTANCE" operator="greaterOrEqual" value="8"/>
							<Node score="64.606384">
								<SimplePredicate field="RELIABILITY" operator="greaterOrEqual" value="0.675"/>
								<Node score="94.90494">
									<SimplePredicate field="IMPORTANCE" operator="greaterOrEqual" value="13"/>
									<Node score="135.66525">
										<SimplePredicate field="PROVIDED_INTERFACE" operator="greaterOrEqual" value="5"/>
									</Node>
								</Node>
								<Node score="91.467834">
									<SimplePredicate field="PROVIDED_INTERFACE" operator="greaterOrEqual" value="5"/>
								</Node>
							</Node>
							<Node score="29.751987">
								<SimplePredicate field="REQUIRED_INTERFACE" operator="greaterOrEqual" value="2"/>
								<Node score="41.142056">
									<SimplePredicate field="IMPORTANCE" operator="greaterOrEqual" value="13"/>
									<Node score="64.900246">
										<SimplePredicate field="CRITICALITY" operator="greaterOrEqual" value="9"/>
									</Node>
								</Node>
								<Node score="40.579823">
									<SimplePredicate field="CRITICALITY" operator="greaterOrEqual" value="10"/>
								</Node>
							</Node>
							<Node score="32.15757">
								<SimplePredicate field="PROVIDED_INTERFACE" operator="greaterOrEqual" value="3"/>
								<Node score="53.219776">
									<SimplePredicate field="CRITICALITY" operator="greaterOrEqual" value="8"/>
								</Node>
							</Node>
							<Node score="27.174103">
								<SimplePredicate field="IMPORTANCE" operator="greaterOrEqual" value="12"/>
							</Node>
						</Node>
						<Node score="3.43547">
							<SimplePredicate field="RELIABILITY" operator="greaterOrEqual" value="0.675"/>
							<Node score="33.308754">
								<SimplePredicate field="IMPORTANCE" operator="greaterOrEqual" value="4"/>
								<Node score="47.41011">
									<SimplePredicate field="IMPORTANCE" operator="greaterOrEqual" value="6"/>
									<Node score="69.18388">
										<SimplePredicate field="PROVIDED_INTERFACE" operator="greaterOrEqual" value="6"/>
									</Node>
								</Node>
								<Node score="48.891487">
									<SimplePredicate field="PROVIDED_INTERFACE" operator="greaterOrEqual" value="7"/>
								</Node>
							</Node>
							<Node score="12.193094">
								<SimplePredicate field="IMPORTANCE" operator="greaterOrEqual" value="2"/>
								<Node score="24.041847">
									<SimplePredicate field="PROVIDED_INTERFACE" operator="greaterOrEqual" value="5"/>
								</Node>
							</Node>
							<Node score="7.1121726">
								<SimplePredicate field="PROVIDED_INTERFACE" operator="greaterOrEqual" value="5"/>
							</Node>
						</Node>
						<Node score="7.77362">
							<SimplePredicate field="IMPORTANCE" operator="greaterOrEqual" value="4"/>
							<Node score="13.474562">
								<SimplePredicate field="REQUIRED_INTERFACE" operator="greaterOrEqual" value="2"/>
								<Node score="22.424458">
									<SimplePredicate field="CRITICALITY" operator="greaterOrEqual" value="9"/>
								</Node>
							</Node>
							<Node score="16.826853">
								<SimplePredicate field="PROVIDED_INTERFACE" operator="greaterOrEqual" value="3"/>
							</Node>
						</Node>
						<Node score="3.8602085">
							<SimplePredicate field="IMPORTANCE" operator="greaterOrEqual" value="3"/>
							<Node score="10.3877945">
								<SimplePredicate field="REQUIRED_INTERFACE" operator="greaterOrEqual" value="2"/>
							</Node>
						</Node>
						<Node score="4.177949">
							<SimplePredicate field="CRITICALITY" operator="greaterOrEqual" value="9"/>
						</Node>
					</Node>
				</TreeModel>
			</Segment>
			<Segment id="4">
				<True/>
				<TreeModel functionName="regression" missingValueStrategy="none" noTrueChildStrategy="returnLastPrediction" splitCharacteristic="multiSplit" x-mathContext="float">
					<MiningSchema>
						<MiningField name="CRITICALITY"/>
						<MiningField name="RELIABILITY"/>
						<MiningField name="IMPORTANCE"/>
						<MiningField name="PROVIDED_INTERFACE"/>
						<MiningField name="REQUIRED_INTERFACE"/>
						<MiningField name="PMax"/>
					</MiningSchema>
					<Node score="0.08354343">
						<True/>
						<Node score="9.647661">
							<SimplePredicate field="PROVIDED_INTERFACE" operator="greaterOrEqual" value="12"/>
							<Node score="11.757061">
								<SimplePredicate field="IMPORTANCE" operator="greaterOrEqual" value="7"/>
								<Node score="283.98996">
									<SimplePredicate field="PROVIDED_INTERFACE" operator="greaterOrEqual" value="20"/>
								</Node>
								<Node score="82.654396">
									<SimplePredicate field="IMPORTANCE" operator="greaterOrEqual" value="14"/>
									<Node score="207.9314">
										<SimplePredicate field="CRITICALITY" operator="greaterOrEqual" value="9"/>
									</Node>
								</Node>
								<Node score="83.39963">
									<SimplePredicate field="REQUIRED_INTERFACE" operator="greaterOrEqual" value="1"/>
									<Node score="131.53836">
										<SimplePredicate field="IMPORTANCE" operator="greaterOrEqual" value="8"/>
									</Node>
								</Node>
								<Node score="56.527744">
									<SimplePredicate field="PROVIDED_INTERFACE" operator="greaterOrEqual" value="13"/>
								</Node>
							</Node>
							<Node score="21.761477">
								<SimplePredicate field="IMPORTANCE" operator="greaterOrEqual" value="3"/>
								<Node score="115.62234">
									<SimplePredicate field="PROVIDED_INTERFACE" operator="greaterOrEqual" value="24"/>
								</Node>
								<Node score="48.21429">
									<SimplePredicate field="REQUIRED_INTERFACE" operator="greaterOrEqual" value="1"/>
									<Node score="73.12947">
										<SimplePredicate field="IMPORTANCE" operator="greaterOrEqual" value="5"/>
									</Node>
								</Node>
							</Node>
							<Node score="16.525764">
								<SimplePredicate field="IMPORTANCE" operator="greaterOrEqual" value="2"/>
								<Node score="36.127037">
									<SimplePredicate field="PROVIDED_INTERFACE" operator="greaterOrEqual" value="13"/>
								</Node>
							</Node>
							<Node score="28.077263">
								<SimplePredicate field="PROVIDED_INTERFACE" operator="greaterOrEqual" value="23"/>
							</Node>
						</Node>
						<Node score="4.832719">
							<SimplePredicate field="IMPORTANCE" operator="greaterOrEqual" value="7"/>
							<Node score="38.842735">
								<SimplePredicate field="PROVIDED_INTERFACE" operator="greaterOrEqual" value="4"/>
								<Node score="17.710735">
									<SimplePredicate field="PMax" operator="greaterOrEqual" value="13.281256"/>
									<Node score="28.335314">
										<SimplePredicate field="PROVIDED_INTERFACE" operator="greaterOrEqual" value="7"/>
										<Node score="47.619137">
											<SimplePredicate field="IMPORTANCE" operator="greaterOrEqual" value="11"/>
										</Node>
									</Node>
									<Node score="41.117443">
										<SimplePredicate field="REQUIRED_INTERFACE" operator="greaterOrEqual" value="1"/>
									</Node>
								</Node>
								<Node score="79.73726">
									<SimplePredicate field="IMPORTANCE" operator="greaterOrEqual" value="12"/>
									<Node score="135.80644">
										<SimplePredicate field="PROVIDED_INTERFACE" operator="greaterOrEqual" value="7"/>
									</Node>
								</Node>
								<Node score="66.88873">
									<SimplePredicate field="PROVIDED_INTERFACE" operator="greaterOrEqual" value="5"/>
								</Node>
							</Node>
							<Node score="16.550621">
								<SimplePredicate field="CRITICALITY" operator="greaterOrEqual" value="8"/>
								<Node score="24.878487">
									<SimplePredicate field="IMPORTANCE" operator="greaterOrEqual" value="12"/>
									<Node score="37.324238">
										<SimplePredicate field="CRITICALITY" operator="greaterOrEqual" value="9"/>
									</Node>
								</Node>
								<Node score="25.284063">
									<SimplePredicate field="REQUIRED_INTERFACE" operator="greaterOrEqual" value="5"/>
								</Node>
							</Node>
							<Node score="11.304953">
								<SimplePredicate field="IMPORTANCE" operator="greaterOrEqual" value="14"/>
								<Node score="19.201101">
									<SimplePredicate field="CRITICALITY" operator="greaterOrEqual" value="6"/>
								</Node>
							</Node>
							<Node score="10.889245">
								<SimplePredicate field="CRITICALITY" operator="greaterOrEqual" value="6"/>
							</Node>
						</Node>
						<Node score="2.4735384">
							<SimplePredicate field="RELIABILITY" operator="greaterOrEqual" value="0.675"/>
							<Node score="20.607672">
								<SimplePredicate field="IMPORTANCE" operator="greaterOrEqual" value="4"/>
								<Node score="60.064125">
									<SimplePredicate field="PROVIDED_INTERFACE" operator="greaterOrEqual" value="8"/>
								</Node>
								<Node score="32.688526">
									<SimplePredicate field="PROVIDED_INTERFACE" operator="greaterOrEqual" value="5"/>
								</Node>
							</Node>
							<Node score="12.502262">
								<SimplePredicate field="IMPORTANCE" operator="greaterOrEqual" value="2"/>
								<Node score="25.637434">
									<SimplePredicate field="PROVIDED_INTERFACE" operator="greaterOrEqual" value="7"/>
								</Node>
							</Node>
							<Node score="6.030747">
								<SimplePredicate field="PROVIDED_INTERFACE" operator="greaterOrEqual" value="5"/>
							</Node>
						</Node>
						<Node score="4.4313655">
							<SimplePredicate field="CRITICALITY" operator="greaterOrEqual" value="9"/>
							<Node score="13.746163">
								<SimplePredicate field="PROVIDED_INTERFACE" operator="greaterOrEqual" value="3"/>
								<Node score="34.518105">
									<SimplePredicate field="IMPORTANCE" operator="greaterOrEqual" value="5"/>
								</Node>
							</Node>
							<Node score="10.583189">
								<SimplePredicate field="IMPORTANCE" operator="greaterOrEqual" value="4"/>
							</Node>
						</Node>
						<Node score="1.3156462">
							<SimplePredicate field="CRITICALITY" operator="greaterOrEqual" value="7"/>
							<Node score="6.0241323">
								<SimplePredicate field="IMPORTANCE" operator="greaterOrEqual" value="3"/>
							</Node>
						</Node>
						<Node score="8.865938">
							<SimplePredicate field="PROVIDED_INTERFACE" operator="greaterOrEqual" value="4"/>
						</Node>
					</Node>
				</TreeModel>
			</Segment>
			<Segment id="5">
				<True/>
				<TreeModel functionName="regression" missingValueStrategy="none" noTrueChildStrategy="returnLastPrediction" splitCharacteristic="multiSplit" x-mathContext="float">
					<MiningSchema>
						<MiningField name="CRITICALITY"/>
						<MiningField name="RELIABILITY"/>
						<MiningField name="IMPORTANCE"/>
						<MiningField name="PROVIDED_INTERFACE"/>
						<MiningField name="REQUIRED_INTERFACE"/>
					</MiningSchema>
					<Node score="-0.89446825">
						<True/>
						<Node score="1.9194351">
							<SimplePredicate field="PROVIDED_INTERFACE" operator="greaterOrEqual" value="8"/>
							<Node score="13.637045">
								<SimplePredicate field="IMPORTANCE" operator="greaterOrEqual" value="7"/>
								<Node score="93.73064">
									<SimplePredicate field="PROVIDED_INTERFACE" operator="greaterOrEqual" value="14"/>
									<Node score="253.17896">
										<SimplePredicate field="PROVIDED_INTERFACE" operator="greaterOrEqual" value="25"/>
									</Node>
									<Node score="71.13852">
										<SimplePredicate field="IMPORTANCE" operator="greaterOrEqual" value="12"/>
										<Node score="168.95323">
											<SimplePredicate field="CRITICALITY" operator="greaterOrEqual" value="9"/>
										</Node>
									</Node>
								</Node>
								<Node score="88.94002">
									<SimplePredicate field="REQUIRED_INTERFACE" operator="greaterOrEqual" value="1"/>
									<Node score="82.570465">
										<SimplePredicate field="IMPORTANCE" operator="greaterOrEqual" value="11"/>
										<Node score="116.470566">
											<SimplePredicate field="IMPORTANCE" operator="greaterOrEqual" value="14"/>
										</Node>
									</Node>
									<Node score="47.360886">
										<SimplePredicate field="CRITICALITY" operator="greaterOrEqual" value="9"/>
									</Node>
								</Node>
								<Node score="32.645508">
									<SimplePredicate field="IMPORTANCE" operator="greaterOrEqual" value="8"/>
								</Node>
							</Node>
							<Node score="6.936352">
								<SimplePredicate field="PROVIDED_INTERFACE" operator="greaterOrEqual" value="15"/>
								<Node score="86.67947">
									<SimplePredicate field="IMPORTANCE" operator="greaterOrEqual" value="4"/>
									<Node score="91.11371">
										<SimplePredicate field="PROVIDED_INTERFACE" operator="greaterOrEqual" value="25"/>
									</Node>
									<Node score="51.890858">
										<SimplePredicate field="CRITICALITY" operator="greaterOrEqual" value="9"/>
									</Node>
								</Node>
								<Node score="30.57652">
									<SimplePredicate field="IMPORTANCE" operator="greaterOrEqual" value="2"/>
									<Node score="54.742943">
										<SimplePredicate field="PROVIDED_INTERFACE" operator="greaterOrEqual" value="25"/>
									</Node>
								</Node>
								<Node score="21.057945">
									<SimplePredicate field="PROVIDED_INTERFACE" operator="greaterOrEqual" value="23"/>
								</Node>
							</Node>
							<Node score="14.665908">
								<SimplePredicate field="IMPORTANCE" operator="greaterOrEqual" value="4"/>
								<Node score="46.085663">
									<SimplePredicate field="RELIABILITY" operator="greaterOrEqual" value="0.675"/>
								</Node>
								<Node score="31.95914">
									<SimplePredicate field="PROVIDED_INTERFACE" operator="greaterOrEqual" value="12"/>
								</Node>
							</Node>
							<Node score="6.3704696">
								<SimplePredicate field="IMPORTANCE" operator="greaterOrEqual" value="2"/>
								<Node score="17.65175">
									<SimplePredicate field="REQUIRED_INTERFACE" operator="greaterOrEqual" value="1"/>
								</Node>
							</Node>
							<Node score="6.1822543">
								<SimplePredicate field="PROVIDED_INTERFACE" operator="greaterOrEqual" value="12"/>
							</Node>
						</Node>
						<Node score="17.303581">
							<SimplePredicate field="IMPORTANCE" operator="greaterOrEqual" value="11"/>
							<Node score="32.25301">
								<SimplePredicate field="RELIABILITY" operator="greaterOrEqual" value="0.675"/>
								<Node score="52.40678">
									<SimplePredicate field="PROVIDED_INTERFACE" operator="greaterOrEqual" value="5"/>
									<Node score="77.07291">
										<SimplePredicate field="IMPORTANCE" operator="greaterOrEqual" value="14"/>
									</Node>
								</Node>
								<Node score="48.392044">
									<SimplePredicate field="IMPORTANCE" operator="greaterOrEqual" value="14"/>
								</Node>
							</Node>
							<Node score="19.573833">
								<SimplePredicate field="CRITICALITY" operator="greaterOrEqual" value="9"/>
								<Node score="79.80228">
									<SimplePredicate field="PROVIDED_INTERFACE" operator="greaterOrEqual" value="4"/>
								</Node>
								<Node score="29.846136">
									<SimplePredicate field="IMPORTANCE" operator="greaterOrEqual" value="14"/>
								</Node>
							</Node>
							<Node score="10.403096">
								<SimplePredicate field="PROVIDED_INTERFACE" operator="greaterOrEqual" value="1"/>
								<Node score="22.637608">
									<SimplePredicate field="PROVIDED_INTERFACE" operator="greaterOrEqual" value="3"/>
								</Node>
							</Node>
							<Node score="23.507078">
								<SimplePredicate field="IMPORTANCE" operator="greaterOrEqual" value="14"/>
							</Node>
						</Node>
						<Node score="3.9451628">
							<SimplePredicate field="IMPORTANCE" operator="greaterOrEqual" value="6"/>
							<Node score="23.945732">
								<SimplePredicate field="RELIABILITY" operator="greaterOrEqual" value="0.675"/>
								<Node score="43.781967">
									<SimplePredicate field="PROVIDED_INTERFACE" operator="greaterOrEqual" value="6"/>
									<Node score="12.164722">
										<SimplePredicate field="IMPORTANCE" operator="greaterOrEqual" value="10"/>
									</Node>
								</Node>
								<Node score="37.3988">
									<SimplePredicate field="IMPORTANCE" operator="greaterOrEqual" value="9"/>
								</Node>
							</Node>
							<Node score="10.820896">
								<SimplePredicate field="CRITICALITY" operator="greaterOrEqual" value="8"/>
								<Node score="36.8728">
									<SimplePredicate field="PROVIDED_INTERFACE" operator="greaterOrEqual" value="4"/>
								</Node>
							</Node>
							<Node score="12.8035145">
								<SimplePredicate field="PROVIDED_INTERFACE" operator="greaterOrEqual" value="6"/>
							</Node>
						</Node>
						<Node score="3.2566576">
							<SimplePredicate field="PROVIDED_INTERFACE" operator="greaterOrEqual" value="4"/>
							<Node score="49.74389">
								<SimplePredicate field="REQUIRED_INTERFACE" operator="greaterOrEqual" value="2"/>
							</Node>
							<Node score="12.562863">
								<SimplePredicate field="REQUIRED_INTERFACE" operator="greaterOrEqual" value="1"/>
							</Node>
						</Node>
						<Node score="1.1021411">
							<SimplePredicate field="CRITICALITY" operator="greaterOrEqual" value="8"/>
							<Node score="5.0293508">
								<SimplePredicate field="IMPORTANCE" operator="greaterOrEqual" value="3"/>
							</Node>
						</Node>
						<Node score="0.8850158">
							<SimplePredicate field="IMPORTANCE" operator="greaterOrEqual" value="4"/>
						</Node>
					</Node>
				</TreeModel>
			</Segment>
			<Segment id="6">
				<True/>
				<TreeModel functionName="regression" missingValueStrategy="none" noTrueChildStrategy="returnLastPrediction" splitCharacteristic="multiSplit" x-mathContext="float">
					<MiningSchema>
						<MiningField name="CRITICALITY"/>
						<MiningField name="RELIABILITY"/>
						<MiningField name="IMPORTANCE"/>
						<MiningField name="PROVIDED_INTERFACE"/>
						<MiningField name="REQUIRED_INTERFACE"/>
						<MiningField name="REPLICA"/>
					</MiningSchema>
					<Node score="-0.09877755">
						<True/>
						<Node score="5.124795">
							<SimplePredicate field="PROVIDED_INTERFACE" operator="greaterOrEqual" value="12"/>
							<Node score="16.594532">
								<SimplePredicate field="IMPORTANCE" operator="greaterOrEqual" value="7"/>
								<Node score="184.13016">
									<SimplePredicate field="PROVIDED_INTERFACE" operator="greaterOrEqual" value="25"/>
								</Node>
								<Node score="79.61182">
									<SimplePredicate field="IMPORTANCE" operator="greaterOrEqual" value="14"/>
									<Node score="40.17644">
										<SimplePredicate field="PROVIDED_INTERFACE" operator="greaterOrEqual" value="15"/>
										<Node score="135.04417">
											<SimplePredicate field="CRITICALITY" operator="greaterOrEqual" value="9"/>
										</Node>
									</Node>
								</Node>
								<Node score="46.273426">
									<SimplePredicate field="PROVIDED_INTERFACE" operator="greaterOrEqual" value="14"/>
									<Node score="75.82939">
										<SimplePredicate field="IMPORTANCE" operator="greaterOrEqual" value="8"/>
									</Node>
								</Node>
								<Node score="56.294464">
									<SimplePredicate field="REQUIRED_INTERFACE" operator="greaterOrEqual" value="1"/>
								</Node>
							</Node>
							<Node score="15.793456">
								<SimplePredicate field="PROVIDED_INTERFACE" operator="greaterOrEqual" value="22"/>
								<Node score="10.892633">
									<SimplePredicate field="IMPORTANCE" operator="greaterOrEqual" value="2"/>
									<Node score="66.54109">
										<SimplePredicate field="PROVIDED_INTERFACE" operator="greaterOrEqual" value="26"/>
									</Node>
									<Node score="43.62723">
										<SimplePredicate field="IMPORTANCE" operator="greaterOrEqual" value="3"/>
									</Node>
								</Node>
							</Node>
							<Node score="-0.019496156">
								<SimplePredicate field="IMPORTANCE" operator="greaterOrEqual" value="5"/>
								<Node score="68.85904">
									<SimplePredicate field="REQUIRED_INTERFACE" operator="greaterOrEqual" value="1"/>
									<Node score="34.923203">
										<SimplePredicate field="CRITICALITY" operator="greaterOrEqual" value="9"/>
									</Node>
								</Node>
								<Node score="6.5268197">
									<SimplePredicate field="PROVIDED_INTERFACE" operator="greaterOrEqual" value="13"/>
								</Node>
							</Node>
							<Node score="10.777008">
								<SimplePredicate field="IMPORTANCE" operator="greaterOrEqual" value="3"/>
								<Node score="27.464922">
									<SimplePredicate field="PROVIDED_INTERFACE" operator="greaterOrEqual" value="14"/>
								</Node>
							</Node>
							<Node score="12.783642">
								<SimplePredicate field="IMPORTANCE" operator="greaterOrEqual" value="2"/>
							</Node>
						</Node>
						<Node score="6.1242957">
							<SimplePredicate field="IMPORTANCE" operator="greaterOrEqual" value="8"/>
							<Node score="22.13317">
								<SimplePredicate field="RELIABILITY" operator="greaterOrEqual" value="0.675"/>
								<Node score="95.58191">
									<SimplePredicate field="PROVIDED_INTERFACE" operator="greaterOrEqual" value="8"/>
									<Node score="37.066875">
										<SimplePredicate field="REPLICA" operator="greaterOrEqual" value="25"/>
									</Node>
								</Node>
								<Node score="34.56575">
									<SimplePredicate field="IMPORTANCE" operator="greaterOrEqual" value="14"/>
									<Node score="54.91444">
										<SimplePredicate field="PROVIDED_INTERFACE" operator="greaterOrEqual" value="5"/>
									</Node>
								</Node>
								<Node score="34.951107">
									<SimplePredicate field="PROVIDED_INTERFACE" operator="greaterOrEqual" value="5"/>
								</Node>
							</Node>
							<Node score="18.919302">
								<SimplePredicate field="PROVIDED_INTERFACE" operator="greaterOrEqual" value="8"/>
								<Node score="34.12701">
									<SimplePredicate field="CRITICALITY" operator="greaterOrEqual" value="9"/>
									<Node score="62.729275">
										<SimplePredicate field="IMPORTANCE" operator="greaterOrEqual" value="14"/>
									</Node>
								</Node>
								<Node score="27.66057">
									<SimplePredicate field="IMPORTANCE" operator="greaterOrEqual" value="14"/>
								</Node>
							</Node>
							<Node score="15.023374">
								<SimplePredicate field="REQUIRED_INTERFACE" operator="greaterOrEqual" value="2"/>
								<Node score="67.77979">
									<SimplePredicate field="PROVIDED_INTERFACE" operator="greaterOrEqual" value="4"/>
								</Node>
							</Node>
							<Node score="12.094384">
								<SimplePredicate field="IMPORTANCE" operator="greaterOrEqual" value="14"/>
							</Node>
						</Node>
						<Node score="-1.3420427">
							<SimplePredicate field="RELIABILITY" operator="greaterOrEqual" value="0.675"/>
							<Node score="12.029891">
								<SimplePredicate field="PROVIDED_INTERFACE" operator="greaterOrEqual" value="7"/>
								<Node score="40.96002">
									<SimplePredicate field="IMPORTANCE" operator="greaterOrEqual" value="6"/>
								</Node>
								<Node score="23.78684">
									<SimplePredicate field="IMPORTANCE" operator="greaterOrEqual" value="4"/>
								</Node>
							</Node>
							<Node score="11.320057">
								<SimplePredicate field="IMPORTANCE" operator="greaterOrEqual" value="4"/>
								<Node score="17.184952">
									<SimplePredicate field="RELIABILITY" operator="greaterOrEqual" value="0.875"/>
								</Node>
							</Node>
							<Node score="5.2420177">
								<SimplePredicate field="IMPORTANCE" operator="greaterOrEqual" value="2"/>
							</Node>
						</Node>
						<Node score="1.2252963">
							<SimplePredicate field="CRITICALITY" operator="greaterOrEqual" value="9"/>
							<Node score="7.2921853">
								<SimplePredicate field="IMPORTANCE" operator="greaterOrEqual" value="5"/>
								<Node score="20.161753">
									<SimplePredicate field="PROVIDED_INTERFACE" operator="greaterOrEqual" value="4"/>
								</Node>
							</Node>
							<Node score="5.8504395">
								<SimplePredicate field="REQUIRED_INTERFACE" operator="greaterOrEqual" value="2"/>
							</Node>
						</Node>
						<Node score="2.7865853">
							<SimplePredicate field="IMPORTANCE" operator="greaterOrEqual" value="4"/>
							<Node score="11.007908">
								<SimplePredicate field="PROVIDED_INTERFACE" operator="greaterOrEqual" value="7"/>
							</Node>
						</Node>
						<Node score="3.1434677">
							<SimplePredicate field="PROVIDED_INTERFACE" operator="greaterOrEqual" value="3"/>
						</Node>
					</Node>
				</TreeModel>
			</Segment>
			<Segment id="7">
				<True/>
				<TreeModel functionName="regression" missingValueStrategy="none" noTrueChildStrategy="returnLastPrediction" splitCharacteristic="multiSplit" x-mathContext="float">
					<MiningSchema>
						<MiningField name="CRITICALITY"/>
						<MiningField name="RELIABILITY"/>
						<MiningField name="IMPORTANCE"/>
						<MiningField name="PROVIDED_INTERFACE"/>
						<MiningField name="REQUIRED_INTERFACE"/>
						<MiningField name="REPLICA"/>
						<MiningField name="REQUEST"/>
						<MiningField name="ADT"/>
						<MiningField name="PMax"/>
					</MiningSchema>
					<Node score="0.076109394">
						<True/>
						<Node score="3.8155944">
							<SimplePredicate field="PROVIDED_INTERFACE" operator="greaterOrEqual" value="11"/>
							<Node score="40.470924">
								<SimplePredicate field="IMPORTANCE" operator="greaterOrEqual" value="9"/>
								<Node score="99.31703">
									<SimplePredicate field="PROVIDED_INTERFACE" operator="greaterOrEqual" value="20"/>
									<Node score="19.31089">
										<SimplePredicate field="REPLICA" operator="greaterOrEqual" value="46"/>
									</Node>
									<Node score="162.49594">
										<SimplePredicate field="REQUEST" operator="greaterOrEqual" value="520"/>
									</Node>
									<Node score="24.670618">
										<SimplePredicate field="REQUEST" operator="greaterOrEqual" value="254"/>
									</Node>
								</Node>
								<Node score="43.556282">
									<SimplePredicate field="ADT" operator="greaterOrEqual" value="1.1058211"/>
									<Node score="104.122475">
										<SimplePredicate field="RELIABILITY" operator="greaterOrEqual" value="0.675"/>
									</Node>
									<Node score="71.59248">
										<SimplePredicate field="IMPORTANCE" operator="greaterOrEqual" value="14"/>
									</Node>
								</Node>
								<Node score="7.273826">
									<SimplePredicate field="ADT" operator="greaterOrEqual" value="1.0710976"/>
								</Node>
								<Node score="15.533802">
									<SimplePredicate field="REPLICA" operator="greaterOrEqual" value="45"/>
								</Node>
							</Node>
							<Node score="16.029945">
								<SimplePredicate field="IMPORTANCE" operator="greaterOrEqual" value="6"/>
								<Node score="112.57848">
									<SimplePredicate field="PROVIDED_INTERFACE" operator="greaterOrEqual" value="36"/>
								</Node>
								<Node score="43.916954">
									<SimplePredicate field="PROVIDED_INTERFACE" operator="greaterOrEqual" value="14"/>
								</Node>
								<Node score="31.839437">
									<SimplePredicate field="IMPORTANCE" operator="greaterOrEqual" value="8"/>
								</Node>
							</Node>
							<Node score="8.566408">
								<SimplePredicate field="PROVIDED_INTERFACE" operator="greaterOrEqual" value="17"/>
								<Node score="39.690765">
									<SimplePredicate field="IMPORTANCE" operator="greaterOrEqual" value="4"/>
									<Node score="19.114769">
										<SimplePredicate field="REPLICA" operator="greaterOrEqual" value="37"/>
									</Node>
								</Node>
								<Node score="20.67478">
									<SimplePredicate field="IMPORTANCE" operator="greaterOrEqual" value="2"/>
								</Node>
							</Node>
							<Node score="15.984464">
								<SimplePredicate field="RELIABILITY" operator="greaterOrEqual" value="0.675"/>
								<Node score="33.064083">
									<SimplePredicate field="RELIABILITY" operator="greaterOrEqual" value="0.875"/>
								</Node>
							</Node>
							<Node score="11.13571">
								<SimplePredicate field="IMPORTANCE" operator="greaterOrEqual" value="3"/>
							</Node>
						</Node>
						<Node score="-2.2951522">
							<SimplePredicate field="IMPORTANCE" operator="greaterOrEqual" value="11"/>
							<Node score="0.5366401">
								<SimplePredicate field="PROVIDED_INTERFACE" operator="greaterOrEqual" value="4"/>
								<Node score="4.170214">
									<SimplePredicate field="REQUIRED_INTERFACE" operator="greaterOrEqual" value="1"/>
									<Node score="37.97838">
										<SimplePredicate field="IMPORTANCE" operator="greaterOrEqual" value="15"/>
										<Node score="69.23669">
											<SimplePredicate field="PROVIDED_INTERFACE" operator="greaterOrEqual" value="5"/>
										</Node>
									</Node>
									<Node score="30.85285">
										<SimplePredicate field="CRITICALITY" operator="greaterOrEqual" value="6"/>
									</Node>
								</Node>
								<Node score="18.734701">
									<SimplePredicate field="PROVIDED_INTERFACE" operator="greaterOrEqual" value="6"/>
									<Node score="8.339505">
										<SimplePredicate field="PROVIDED_INTERFACE" operator="greaterOrEqual" value="10"/>
									</Node>
								</Node>
								<Node score="6.2485247">
									<SimplePredicate field="IMPORTANCE" operator="greaterOrEqual" value="15"/>
								</Node>
							</Node>
							<Node score="16.257998">
								<SimplePredicate field="CRITICALITY" operator="greaterOrEqual" value="10"/>
								<Node score="25.326532">
									<SimplePredicate field="IMPORTANCE" operator="greaterOrEqual" value="14"/>
									<Node score="16.919924">
										<SimplePredicate field="PROVIDED_INTERFACE" operator="greaterOrEqual" value="1"/>
									</Node>
								</Node>
								<Node score="12.352619">
									<SimplePredicate field="PROVIDED_INTERFACE" operator="greaterOrEqual" value="1"/>
								</Node>
							</Node>
							<Node score="7.0322523">
								<SimplePredicate field="CRITICALITY" operator="greaterOrEqual" value="6"/>
								<Node score="13.355333">
									<SimplePredicate field="IMPORTANCE" operator="greaterOrEqual" value="15"/>
								</Node>
							</Node>
							<Node score="1.2307488">
								<SimplePredicate field="IMPORTANCE" operator="greaterOrEqual" value="13"/>
							</Node>
						</Node>
						<Node score="0.8904694">
							<SimplePredicate field="PROVIDED_INTERFACE" operator="greaterOrEqual" value="4"/>
							<Node score="1.397585">
								<SimplePredicate field="PMax" operator="greaterOrEqual" value="14.109611"/>
								<Node score="5.2170677">
									<SimplePredicate field="PROVIDED_INTERFACE" operator="greaterOrEqual" value="7"/>
									<Node score="11.57042">
										<SimplePredicate field="IMPORTANCE" operator="greaterOrEqual" value="8"/>
									</Node>
								</Node>
								<Node score="10.872647">
									<SimplePredicate field="CRITICALITY" operator="greaterOrEqual" value="8"/>
								</Node>
							</Node>
							<Node score="17.010345">
								<SimplePredicate field="IMPORTANCE" operator="greaterOrEqual" value="5"/>
								<Node score="36.41174">
									<SimplePredicate field="PMax" operator="greaterOrEqual" value="12.986284"/>
								</Node>
							</Node>
							<Node score="9.290431">
								<SimplePredicate field="IMPORTANCE" operator="greaterOrEqual" value="3"/>
							</Node>
						</Node>
						<Node score="-0.17319332">
							<SimplePredicate field="REQUIRED_INTERFACE" operator="greaterOrEqual" value="2"/>
							<Node score="5.3223658">
								<SimplePredicate field="IMPORTANCE" operator="greaterOrEqual" value="7"/>
								<Node score="9.574203">
									<SimplePredicate field="CRITICALITY" operator="greaterOrEqual" value="9"/>
								</Node>
							</Node>
							<Node score="3.9138196">
								<SimplePredicate field="IMPORTANCE" operator="greaterOrEqual" value="2"/>
							</Node>
						</Node>
						<Node score="2.4564552">
							<SimplePredicate field="IMPORTANCE" operator="greaterOrEqual" value="7"/>
							<Node score="8.940417">
								<SimplePredicate field="CRITICALITY" operator="greaterOrEqual" value="10"/>
							</Node>
						</Node>
						<Node score="3.4936957">
							<SimplePredicate field="PROVIDED_INTERFACE" operator="greaterOrEqual" value="3"/>
						</Node>
					</Node>
				</TreeModel>
			</Segment>
			<Segment id="8">
				<True/>
				<TreeModel functionName="regression" missingValueStrategy="none" noTrueChildStrategy="returnLastPrediction" splitCharacteristic="multiSplit" x-mathContext="float">
					<MiningSchema>
						<MiningField name="CRITICALITY"/>
						<MiningField name="RELIABILITY"/>
						<MiningField name="IMPORTANCE"/>
						<MiningField name="PROVIDED_INTERFACE"/>
						<MiningField name="REQUIRED_INTERFACE"/>
						<MiningField name="REPLICA"/>
						<MiningField name="REQUEST"/>
						<MiningField name="ADT"/>
						<MiningField name="PMax"/>
					</MiningSchema>
					<Node score="-0.16699526">
						<True/>
						<Node score="6.9546742">
							<SimplePredicate field="PROVIDED_INTERFACE" operator="greaterOrEqual" value="12"/>
							<Node score="18.549871">
								<SimplePredicate field="IMPORTANCE" operator="greaterOrEqual" value="9"/>
								<Node score="74.48775">
									<SimplePredicate field="PROVIDED_INTERFACE" operator="greaterOrEqual" value="20"/>
									<Node score="29.616018">
										<SimplePredicate field="REPLICA" operator="greaterOrEqual" value="45"/>
									</Node>
									<Node score="127.05674">
										<SimplePredicate field="REQUEST" operator="greaterOrEqual" value="520"/>
									</Node>
									<Node score="19.736488">
										<SimplePredicate field="REQUEST" operator="greaterOrEqual" value="254"/>
									</Node>
								</Node>
								<Node score="13.156678">
									<SimplePredicate field="IMPORTANCE" operator="greaterOrEqual" value="15"/>
									<Node score="71.183365">
										<SimplePredicate field="CRITICALITY" operator="greaterOrEqual" value="9"/>
									</Node>
								</Node>
								<Node score="33.608376">
									<SimplePredicate field="PROVIDED_INTERFACE" operator="greaterOrEqual" value="13"/>
									<Node score="49.248497">
										<SimplePredicate field="IMPORTANCE" operator="greaterOrEqual" value="13"/>
									</Node>
								</Node>
								<Node score="37.837875">
									<SimplePredicate field="REQUEST" operator="greaterOrEqual" value="618"/>
								</Node>
							</Node>
							<Node score="12.32201">
								<SimplePredicate field="PROVIDED_INTERFACE" operator="greaterOrEqual" value="34"/>
								<Node score="94.365456">
									<SimplePredicate field="IMPORTANCE" operator="greaterOrEqual" value="4"/>
								</Node>
							</Node>
							<Node score="25.926323">
								<SimplePredicate field="IMPORTANCE" operator="greaterOrEqual" value="6"/>
								<Node score="35.904984">
									<SimplePredicate field="PROVIDED_INTERFACE" operator="greaterOrEqual" value="16"/>
								</Node>
								<Node score="13.336821">
									<SimplePredicate field="ADT" operator="greaterOrEqual" value="1.4351814"/>
								</Node>
							</Node>
							<Node score="7.502131">
								<SimplePredicate field="PROVIDED_INTERFACE" operator="greaterOrEqual" value="17"/>
								<Node score="22.008324">
									<SimplePredicate field="IMPORTANCE" operator="greaterOrEqual" value="3"/>
								</Node>
							</Node>
							<Node score="26.820017">
								<SimplePredicate field="RELIABILITY" operator="greaterOrEqual" value="0.875"/>
							</Node>
						</Node>
						<Node score="-0.6626682">
							<SimplePredicate field="PROVIDED_INTERFACE" operator="greaterOrEqual" value="3"/>
							<Node score="16.95283">
								<SimplePredicate field="IMPORTANCE" operator="greaterOrEqual" value="12"/>
								<Node score="2.5073688">
									<SimplePredicate field="PMax" operator="greaterOrEqual" value="14.109611"/>
									<Node score="14.50773">
										<SimplePredicate field="CRITICALITY" operator="greaterOrEqual" value="8"/>
										<Node score="30.575333">
											<SimplePredicate field="PROVIDED_INTERFACE" operator="greaterOrEqual" value="4"/>
										</Node>
									</Node>
									<Node score="12.988303">
										<SimplePredicate field="PROVIDED_INTERFACE" operator="greaterOrEqual" value="6"/>
									</Node>
								</Node>
								<Node score="31.502605">
									<SimplePredicate field="PROVIDED_INTERFACE" operator="greaterOrEqual" value="6"/>
									<Node score="64.435394">
										<SimplePredicate field="RELIABILITY" operator="greaterOrEqual" value="0.875"/>
									</Node>
								</Node>
								<Node score="43.134308">
									<SimplePredicate field="REPLICA" operator="greaterOrEqual" value="48"/>
								</Node>
							</Node>
							<Node score="9.11377">
								<SimplePredicate field="IMPORTANCE" operator="greaterOrEqual" value="6"/>
								<Node score="3.1334507">
									<SimplePredicate field="PMax" operator="greaterOrEqual" value="14.109611"/>
									<Node score="8.982654">
										<SimplePredicate field="CRITICALITY" operator="greaterOrEqual" value="8"/>
									</Node>
								</Node>
								<Node score="19.302486">
									<SimplePredicate field="PROVIDED_INTERFACE" operator="greaterOrEqual" value="6"/>
								</Node>
							</Node>
							<Node score="4.214568">
								<SimplePredicate field="IMPORTANCE" operator="greaterOrEqual" value="2"/>
								<Node score="17.700489">
									<SimplePredicate field="REQUIRED_INTERFACE" operator="greaterOrEqual" value="2"/>
								</Node>
							</Node>
							<Node score="-2.113585">
								<SimplePredicate field="ADT" operator="greaterOrEqual" value="1.3345566"/>
							</Node>
						</Node>
						<Node score="0.9271297">
							<SimplePredicate field="IMPORTANCE" operator="greaterOrEqual" value="14"/>
							<Node score="8.381249">
								<SimplePredicate field="REQUIRED_INTERFACE" operator="greaterOrEqual" value="2"/>
								<Node score="15.864591">
									<SimplePredicate field="CRITICALITY" operator="greaterOrEqual" value="10"/>
									<Node score="23.40828">
										<SimplePredicate field="IMPORTANCE" operator="greaterOrEqual" value="15"/>
									</Node>
								</Node>
								<Node score="12.746792">
									<SimplePredicate field="IMPORTANCE" operator="greaterOrEqual" value="15"/>
								</Node>
							</Node>
							<Node score="9.2554455">
								<SimplePredicate field="CRITICALITY" operator="greaterOrEqual" value="10"/>
								<Node score="14.726737">
									<SimplePredicate field="IMPORTANCE" operator="greaterOrEqual" value="15"/>
								</Node>
							</Node>
							<Node score="4.502566">
								<SimplePredicate field="CRITICALITY" operator="greaterOrEqual" value="6"/>
							</Node>
						</Node>
						<Node score="-1.3075707">
							<SimplePredicate field="CRITICALITY" operator="greaterOrEqual" value="10"/>
							<Node score="6.916147">
								<SimplePredicate field="IMPORTANCE" operator="greaterOrEqual" value="7"/>
								<Node score="10.524818">
									<SimplePredicate field="IMPORTANCE" operator="greaterOrEqual" value="12"/>
								</Node>
							</Node>
							<Node score="4.1637425">
								<SimplePredicate field="IMPORTANCE" operator="greaterOrEqual" value="2"/>
							</Node>
						</Node>
						<Node score="1.5475028">
							<SimplePredicate field="IMPORTANCE" operator="greaterOrEqual" value="7"/>
							<Node score="4.630943">
								<SimplePredicate field="REQUIRED_INTERFACE" operator="greaterOrEqual" value="2"/>
							</Node>
						</Node>
						<Node score="1.469657">
							<SimplePredicate field="REQUIRED_INTERFACE" operator="greaterOrEqual" value="2"/>
						</Node>
					</Node>
				</TreeModel>
			</Segment>
			<Segment id="9">
				<True/>
				<TreeModel functionName="regression" missingValueStrategy="none" noTrueChildStrategy="returnLastPrediction" splitCharacteristic="multiSplit" x-mathContext="float">
					<MiningSchema>
						<MiningField name="CRITICALITY"/>
						<MiningField name="RELIABILITY"/>
						<MiningField name="IMPORTANCE"/>
						<MiningField name="PROVIDED_INTERFACE"/>
						<MiningField name="REQUIRED_INTERFACE"/>
						<MiningField name="REPLICA"/>
						<MiningField name="ADT"/>
						<MiningField name="PMax"/>
					</MiningSchema>
					<Node score="-0.886441">
						<True/>
						<Node score="0.9781939">
							<SimplePredicate field="PROVIDED_INTERFACE" operator="greaterOrEqual" value="7"/>
							<Node score="12.096356">
								<SimplePredicate field="IMPORTANCE" operator="greaterOrEqual" value="11"/>
								<Node score="3.1932497">
									<SimplePredicate field="PROVIDED_INTERFACE" operator="greaterOrEqual" value="17"/>
									<Node score="16.9266">
										<SimplePredicate field="PROVIDED_INTERFACE" operator="greaterOrEqual" value="25"/>
										<Node score="115.98655">
											<SimplePredicate field="REPLICA" operator="greaterOrEqual" value="16"/>
										</Node>
									</Node>
									<Node score="54.994385">
										<SimplePredicate field="IMPORTANCE" operator="greaterOrEqual" value="12"/>
									</Node>
									<Node score="17.940674">
										<SimplePredicate field="PROVIDED_INTERFACE" operator="greaterOrEqual" value="20"/>
									</Node>
								</Node>
								<Node score="22.120613">
									<SimplePredicate field="REQUIRED_INTERFACE" operator="greaterOrEqual" value="1"/>
									<Node score="57.247524">
										<SimplePredicate field="IMPORTANCE" operator="greaterOrEqual" value="15"/>
										<Node score="34.977753">
											<SimplePredicate field="ADT" operator="greaterOrEqual" value="1.1921234"/>
										</Node>
									</Node>
									<Node score="50.620365">
										<SimplePredicate field="RELIABILITY" operator="greaterOrEqual" value="0.875"/>
									</Node>
								</Node>
								<Node score="16.246084">
									<SimplePredicate field="IMPORTANCE" operator="greaterOrEqual" value="15"/>
								</Node>
								<Node score="7.111878">
									<SimplePredicate field="ADT" operator="greaterOrEqual" value="1.1312587"/>
								</Node>
							</Node>
							<Node score="20.340014">
								<SimplePredicate field="PROVIDED_INTERFACE" operator="greaterOrEqual" value="33"/>
								<Node score="83.35846">
									<SimplePredicate field="IMPORTANCE" operator="greaterOrEqual" value="4"/>
								</Node>
							</Node>
							<Node score="6.1380544">
								<SimplePredicate field="IMPORTANCE" operator="greaterOrEqual" value="4"/>
								<Node score="18.26564">
									<SimplePredicate field="PROVIDED_INTERFACE" operator="greaterOrEqual" value="14"/>
									<Node score="64.429405">
										<SimplePredicate field="RELIABILITY" operator="greaterOrEqual" value="0.675"/>
									</Node>
								</Node>
								<Node score="20.189674">
									<SimplePredicate field="RELIABILITY" operator="greaterOrEqual" value="0.675"/>
								</Node>
							</Node>
							<Node score="0.8515926">
								<SimplePredicate field="IMPORTANCE" operator="greaterOrEqual" value="3"/>
								<Node score="8.609442">
									<SimplePredicate field="REQUIRED_INTERFACE" operator="greaterOrEqual" value="1"/>
								</Node>
							</Node>
							<Node score="6.252944">
								<SimplePredicate field="RELIABILITY" operator="greaterOrEqual" value="0.675"/>
							</Node>
						</Node>
						<Node score="1.5042725">
							<SimplePredicate field="IMPORTANCE" operator="greaterOrEqual" value="11"/>
							<Node score="-4.2278895">
								<SimplePredicate field="PROVIDED_INTERFACE" operator="greaterOrEqual" value="3"/>
								<Node score="10.177876">
									<SimplePredicate field="CRITICALITY" operator="greaterOrEqual" value="8"/>
									<Node score="45.168613">
										<SimplePredicate field="PROVIDED_INTERFACE" operator="greaterOrEqual" value="5"/>
									</Node>
									<Node score="20.024162">
										<SimplePredicate field="IMPORTANCE" operator="greaterOrEqual" value="14"/>
									</Node>
								</Node>
								<Node score="14.033154">
									<SimplePredicate field="RELIABILITY" operator="greaterOrEqual" value="0.875"/>
									<Node score="22.644817">
										<SimplePredicate field="IMPORTANCE" operator="greaterOrEqual" value="14"/>
									</Node>
								</Node>
								<Node score="5.712491">
									<SimplePredicate field="CRITICALITY" operator="greaterOrEqual" value="6"/>
								</Node>
							</Node>
							<Node score="4.9844537">
								<SimplePredicate field="REQUIRED_INTERFACE" operator="greaterOrEqual" value="2"/>
								<Node score="9.880198">
									<SimplePredicate field="CRITICALITY" operator="greaterOrEqual" value="10"/>
									<Node score="16.970997">
										<SimplePredicate field="IMPORTANCE" operator="greaterOrEqual" value="15"/>
									</Node>
								</Node>
								<Node score="8.972419">
									<SimplePredicate field="IMPORTANCE" operator="greaterOrEqual" value="15"/>
								</Node>
							</Node>
							<Node score="5.9540734">
								<SimplePredicate field="CRITICALITY" operator="greaterOrEqual" value="10"/>
								<Node score="10.509538">
									<SimplePredicate field="IMPORTANCE" operator="greaterOrEqual" value="15"/>
								</Node>
							</Node>
							<Node score="4.4434786">
								<SimplePredicate field="IMPORTANCE" operator="greaterOrEqual" value="15"/>
							</Node>
						</Node>
						<Node score="-0.08828692">
							<SimplePredicate field="CRITICALITY" operator="greaterOrEqual" value="6"/>
							<Node score="2.0788782">
								<SimplePredicate field="IMPORTANCE" operator="greaterOrEqual" value="5"/>
								<Node score="7.3031945">
									<SimplePredicate field="RELIABILITY" operator="greaterOrEqual" value="0.875"/>
									<Node score="19.929855">
										<SimplePredicate field="IMPORTANCE" operator="greaterOrEqual" value="9"/>
									</Node>
								</Node>
								<Node score="4.7662563">
									<SimplePredicate field="CRITICALITY" operator="greaterOrEqual" value="10"/>
								</Node>
							</Node>
							<Node score="0.69059455">
								<SimplePredicate field="IMPORTANCE" operator="greaterOrEqual" value="2"/>
								<Node score="4.002677">
									<SimplePredicate field="REQUIRED_INTERFACE" operator="greaterOrEqual" value="5"/>
								</Node>
							</Node>
							<Node score="-1.1065538">
								<SimplePredicate field="PROVIDED_INTERFACE" operator="greaterOrEqual" value="1"/>
							</Node>
						</Node>
						<Node score="-1.651614">
							<SimplePredicate field="IMPORTANCE" operator="greaterOrEqual" value="9"/>
							<Node score="-0.96750075">
								<SimplePredicate field="PROVIDED_INTERFACE" operator="greaterOrEqual" value="3"/>
								<Node score="-7.021575">
									<SimplePredicate field="REPLICA" operator="greaterOrEqual" value="3"/>
								</Node>
							</Node>
							<Node score="-3.6944637">
								<SimplePredicate field="IMPORTANCE" operator="greaterOrEqual" value="10"/>
							</Node>
						</Node>
						<Node score="-2.349494">
							<SimplePredicate field="PROVIDED_INTERFACE" operator="greaterOrEqual" value="5"/>
							<Node score="7.0748534">
								<SimplePredicate field="PMax" operator="greaterOrEqual" value="15.729916"/>
							</Node>
						</Node>
						<Node score="-1.8367361">
							<SimplePredicate field="ADT" operator="greaterOrEqual" value="1.2336471"/>
						</Node>
					</Node>
				</TreeModel>
			</Segment>
			<Segment id="10">
				<True/>
				<TreeModel functionName="regression" missingValueStrategy="none" noTrueChildStrategy="returnLastPrediction" splitCharacteristic="multiSplit" x-mathContext="float">
					<MiningSchema>
						<MiningField name="CRITICALITY"/>
						<MiningField name="RELIABILITY"/>
						<MiningField name="IMPORTANCE"/>
						<MiningField name="PROVIDED_INTERFACE"/>
						<MiningField name="REQUIRED_INTERFACE"/>
						<MiningField name="REPLICA"/>
						<MiningField name="REQUEST"/>
						<MiningField name="ADT"/>
						<MiningField name="PMax"/>
					</MiningSchema>
					<Node score="-1.0471754">
						<True/>
						<Node score="-5.1144676">
							<SimplePredicate field="PROVIDED_INTERFACE" operator="greaterOrEqual" value="13"/>
							<Node score="11.909611">
								<SimplePredicate field="IMPORTANCE" operator="greaterOrEqual" value="7"/>
								<Node score="30.81321">
									<SimplePredicate field="PROVIDED_INTERFACE" operator="greaterOrEqual" value="25"/>
									<Node score="3.47168">
										<SimplePredicate field="REPLICA" operator="greaterOrEqual" value="19"/>
										<Node score="87.2092">
											<SimplePredicate field="ADT" operator="greaterOrEqual" value="1.2059369"/>
										</Node>
										<Node score="40.97461">
											<SimplePredicate field="IMPORTANCE" operator="greaterOrEqual" value="9"/>
										</Node>
									</Node>
									<Node score="6.0047975">
										<SimplePredicate field="REPLICA" operator="greaterOrEqual" value="12"/>
									</Node>
								</Node>
								<Node score="8.746262">
									<SimplePredicate field="IMPORTANCE" operator="greaterOrEqual" value="15"/>
									<Node score="49.25524">
										<SimplePredicate field="CRITICALITY" operator="greaterOrEqual" value="9"/>
									</Node>
								</Node>
								<Node score="22.69024">
									<SimplePredicate field="IMPORTANCE" operator="greaterOrEqual" value="8"/>
									<Node score="49.358974">
										<SimplePredicate field="RELIABILITY" operator="greaterOrEqual" value="0.675"/>
									</Node>
								</Node>
								<Node score="4.347539">
									<SimplePredicate field="REPLICA" operator="greaterOrEqual" value="25"/>
								</Node>
							</Node>
							<Node score="7.3221707">
								<SimplePredicate field="PROVIDED_INTERFACE" operator="greaterOrEqual" value="26"/>
								<Node score="34.15155">
									<SimplePredicate field="IMPORTANCE" operator="greaterOrEqual" value="5"/>
								</Node>
								<Node score="17.855988">
									<SimplePredicate field="REPLICA" operator="greaterOrEqual" value="33"/>
								</Node>
								<Node score="1.8734437">
									<SimplePredicate field="ADT" operator="greaterOrEqual" value="1.1074166"/>
								</Node>
							</Node>
							<Node score="5.8403444">
								<SimplePredicate field="RELIABILITY" operator="greaterOrEqual" value="0.675"/>
								<Node score="33.67107">
									<SimplePredicate field="IMPORTANCE" operator="greaterOrEqual" value="4"/>
								</Node>
							</Node>
							<Node score="1.1772865">
								<SimplePredicate field="CRITICALITY" operator="greaterOrEqual" value="9"/>
								<Node score="8.322634">
									<SimplePredicate field="IMPORTANCE" operator="greaterOrEqual" value="3"/>
								</Node>
							</Node>
							<Node score="-2.2575808">
								<SimplePredicate field="REPLICA" operator="greaterOrEqual" value="19"/>
							</Node>
						</Node>
						<Node score="3.9208941">
							<SimplePredicate field="PROVIDED_INTERFACE" operator="greaterOrEqual" value="6"/>
							<Node score="5.9534526">
								<SimplePredicate field="IMPORTANCE" operator="greaterOrEqual" value="8"/>
								<Node score="8.614194">
									<SimplePredicate field="RELIABILITY" operator="greaterOrEqual" value="0.675"/>
									<Node score="55.32865">
										<SimplePredicate field="PROVIDED_INTERFACE" operator="greaterOrEqual" value="9"/>
										<Node score="20.10371">
											<SimplePredicate field="REPLICA" operator="greaterOrEqual" value="25"/>
										</Node>
									</Node>
									<Node score="24.436104">
										<SimplePredicate field="IMPORTANCE" operator="greaterOrEqual" value="14"/>
									</Node>
								</Node>
								<Node score="6.5605416">
									<SimplePredicate field="PROVIDED_INTERFACE" operator="greaterOrEqual" value="12"/>
									<Node score="17.82882">
										<SimplePredicate field="IMPORTANCE" operator="greaterOrEqual" value="12"/>
									</Node>
								</Node>
								<Node score="14.927726">
									<SimplePredicate field="IMPORTANCE" operator="greaterOrEqual" value="15"/>
								</Node>
							</Node>
							<Node score="8.821809">
								<SimplePredicate field="PMax" operator="greaterOrEqual" value="10.960581"/>
								<Node score="30.377491">
									<SimplePredicate field="REQUIRED_INTERFACE" operator="greaterOrEqual" value="2"/>
								</Node>
								<Node score="0.8876942">
									<SimplePredicate field="REQUEST" operator="greaterOrEqual" value="14"/>
								</Node>
							</Node>
							<Node score="10.361458">
								<SimplePredicate field="PROVIDED_INTERFACE" operator="greaterOrEqual" value="9"/>
								<Node score="18.552258">
									<SimplePredicate field="IMPORTANCE" operator="greaterOrEqual" value="5"/>
								</Node>
							</Node>
							<Node score="22.333715">
								<SimplePredicate field="CRITICALITY" operator="greaterOrEqual" value="9"/>
							</Node>
						</Node>
						<Node score="1.3074201">
							<SimplePredicate field="IMPORTANCE" operator="greaterOrEqual" value="14"/>
							<Node score="4.9010086">
								<SimplePredicate field="CRITICALITY" operator="greaterOrEqual" value="9"/>
								<Node score="29.676735">
									<SimplePredicate field="PROVIDED_INTERFACE" operator="greaterOrEqual" value="4"/>
								</Node>
								<Node score="8.585434">
									<SimplePredicate field="REQUIRED_INTERFACE" operator="greaterOrEqual" value="2"/>
								</Node>
							</Node>
							<Node score="15.7181635">
								<SimplePredicate field="RELIABILITY" operator="greaterOrEqual" value="0.875"/>
								<Node score="2.993619">
									<SimplePredicate field="REPLICA" operator="greaterOrEqual" value="24"/>
								</Node>
							</Node>
							<Node score="4.3363814">
								<SimplePredicate field="CRITICALITY" operator="greaterOrEqual" value="8"/>
							</Node>
						</Node>
						<Node score="0.40948486">
							<SimplePredicate field="CRITICALITY" operator="greaterOrEqual" value="6"/>
							<Node score="1.9879291">
								<SimplePredicate field="IMPORTANCE" operator="greaterOrEqual" value="7"/>
								<Node score="5.2681">
									<SimplePredicate field="PROVIDED_INTERFACE" operator="greaterOrEqual" value="3"/>
								</Node>
							</Node>
							<Node score="2.6509788">
								<SimplePredicate field="REQUIRED_INTERFACE" operator="greaterOrEqual" value="5"/>
							</Node>
						</Node>
						<Node score="-1.6796991">
							<SimplePredicate field="PROVIDED_INTERFACE" operator="greaterOrEqual" value="5"/>
							<Node score="7.9848304">
								<SimplePredicate field="PMax" operator="greaterOrEqual" value="15.729916"/>
							</Node>
						</Node>
						<Node score="-4.215413">
							<SimplePredicate field="PROVIDED_INTERFACE" operator="greaterOrEqual" value="4"/>
						</Node>
					</Node>
				</TreeModel>
			</Segment>
			<Segment id="11">
				<True/>
				<TreeModel functionName="regression" missingValueStrategy="none" noTrueChildStrategy="returnLastPrediction" splitCharacteristic="multiSplit" x-mathContext="float">
					<MiningSchema>
						<MiningField name="CRITICALITY"/>
						<MiningField name="RELIABILITY"/>
						<MiningField name="IMPORTANCE"/>
						<MiningField name="PROVIDED_INTERFACE"/>
						<MiningField name="REQUIRED_INTERFACE"/>
						<MiningField name="REPLICA"/>
						<MiningField name="ADT"/>
						<MiningField name="PMax"/>
					</MiningSchema>
					<Node score="-0.38046432">
						<True/>
						<Node score="-1.343614">
							<SimplePredicate field="PROVIDED_INTERFACE" operator="greaterOrEqual" value="11"/>
							<Node score="1.0909017">
								<SimplePredicate field="IMPORTANCE" operator="greaterOrEqual" value="8"/>
								<Node score="29.152662">
									<SimplePredicate field="PROVIDED_INTERFACE" operator="greaterOrEqual" value="24"/>
									<Node score="70.14536">
										<SimplePredicate field="REPLICA" operator="greaterOrEqual" value="19"/>
									</Node>
									<Node score="5.104065">
										<SimplePredicate field="REPLICA" operator="greaterOrEqual" value="12"/>
									</Node>
								</Node>
								<Node score="48.841225">
									<SimplePredicate field="RELIABILITY" operator="greaterOrEqual" value="0.675"/>
								</Node>
								<Node score="14.564368">
									<SimplePredicate field="IMPORTANCE" operator="greaterOrEqual" value="15"/>
									<Node score="38.000126">
										<SimplePredicate field="PROVIDED_INTERFACE" operator="greaterOrEqual" value="15"/>
									</Node>
								</Node>
								<Node score="13.783399">
									<SimplePredicate field="PROVIDED_INTERFACE" operator="greaterOrEqual" value="12"/>
								</Node>
							</Node>
							<Node score="55.951725">
								<SimplePredicate field="PROVIDED_INTERFACE" operator="greaterOrEqual" value="38"/>
							</Node>
							<Node score="2.2188509">
								<SimplePredicate field="PROVIDED_INTERFACE" operator="greaterOrEqual" value="24"/>
								<Node score="24.975567">
									<SimplePredicate field="IMPORTANCE" operator="greaterOrEqual" value="5"/>
									<Node score="5.6596255">
										<SimplePredicate field="IMPORTANCE" operator="greaterOrEqual" value="7"/>
									</Node>
								</Node>
								<Node score="12.503528">
									<SimplePredicate field="REPLICA" operator="greaterOrEqual" value="33"/>
								</Node>
							</Node>
							<Node score="21.619375">
								<SimplePredicate field="RELIABILITY" operator="greaterOrEqual" value="0.675"/>
								<Node score="5.1929536">
									<SimplePredicate field="REPLICA" operator="greaterOrEqual" value="21"/>
								</Node>
							</Node>
							<Node score="3.8405783">
								<SimplePredicate field="CRITICALITY" operator="greaterOrEqual" value="9"/>
							</Node>
						</Node>
						<Node score="1.857514">
							<SimplePredicate field="PROVIDED_INTERFACE" operator="greaterOrEqual" value="3"/>
							<Node score="1.9890579">
								<SimplePredicate field="IMPORTANCE" operator="greaterOrEqual" value="15"/>
								<Node score="1.8199036">
									<SimplePredicate field="REQUIRED_INTERFACE" operator="greaterOrEqual" value="1"/>
									<Node score="-0.32480165">
										<SimplePredicate field="PROVIDED_INTERFACE" operator="greaterOrEqual" value="5"/>
										<Node score="27.218412">
											<SimplePredicate field="CRITICALITY" operator="greaterOrEqual" value="7"/>
										</Node>
									</Node>
									<Node score="14.617145">
										<SimplePredicate field="CRITICALITY" operator="greaterOrEqual" value="7"/>
									</Node>
								</Node>
								<Node score="7.104035">
									<SimplePredicate field="PROVIDED_INTERFACE" operator="greaterOrEqual" value="6"/>
								</Node>
							</Node>
							<Node score="-1.7264916">
								<SimplePredicate field="PMax" operator="greaterOrEqual" value="14.109611"/>
								<Node score="3.46155">
									<SimplePredicate field="CRITICALITY" operator="greaterOrEqual" value="8"/>
									<Node score="8.104205">
										<SimplePredicate field="PROVIDED_INTERFACE" operator="greaterOrEqual" value="4"/>
									</Node>
								</Node>
								<Node score="2.142038">
									<SimplePredicate field="PROVIDED_INTERFACE" operator="greaterOrEqual" value="6"/>
								</Node>
							</Node>
							<Node score="4.0978055">
								<SimplePredicate field="IMPORTANCE" operator="greaterOrEqual" value="8"/>
								<Node score="9.615883">
									<SimplePredicate field="PROVIDED_INTERFACE" operator="greaterOrEqual" value="5"/>
								</Node>
							</Node>
							<Node score="10.816401">
								<SimplePredicate field="REQUIRED_INTERFACE" operator="greaterOrEqual" value="2"/>
							</Node>
						</Node>
						<Node score="-0.5701988">
							<SimplePredicate field="REQUIRED_INTERFACE" operator="greaterOrEqual" value="2"/>
							<Node score="2.4367957">
								<SimplePredicate field="IMPORTANCE" operator="greaterOrEqual" value="11"/>
								<Node score="0.14574586">
									<SimplePredicate field="CRITICALITY" operator="greaterOrEqual" value="10"/>
									<Node score="6.3506436">
										<SimplePredicate field="IMPORTANCE" operator="greaterOrEqual" value="12"/>
									</Node>
								</Node>
								<Node score="4.7170887">
									<SimplePredicate field="IMPORTANCE" operator="greaterOrEqual" value="15"/>
								</Node>
							</Node>
							<Node score="2.573583">
								<SimplePredicate field="IMPORTANCE" operator="greaterOrEqual" value="6"/>
								<Node score="0.029933864">
									<SimplePredicate field="IMPORTANCE" operator="greaterOrEqual" value="9"/>
								</Node>
							</Node>
							<Node score="0.964865">
								<SimplePredicate field="IMPORTANCE" operator="greaterOrEqual" value="2"/>
							</Node>
						</Node>
						<Node score="0.020059062">
							<SimplePredicate field="IMPORTANCE" operator="greaterOrEqual" value="5"/>
							<Node score="0.8592304">
								<SimplePredicate field="CRITICALITY" operator="greaterOrEqual" value="6"/>
								<Node score="3.217443">
									<SimplePredicate field="IMPORTANCE" operator="greaterOrEqual" value="15"/>
								</Node>
							</Node>
							<Node score="-0.88750917">
								<SimplePredicate field="ADT" operator="greaterOrEqual" value="1.1896873"/>
							</Node>
						</Node>
						<Node score="-0.7799437">
							<SimplePredicate field="ADT" operator="greaterOrEqual" value="1.1968236"/>
							<Node score="-1.4218171">
								<SimplePredicate field="CRITICALITY" operator="greaterOrEqual" value="9"/>
							</Node>
						</Node>
						<Node score="0.10517596">
							<SimplePredicate field="PMax" operator="greaterOrEqual" value="14.853634"/>
						</Node>
					</Node>
				</TreeModel>
			</Segment>
			<Segment id="12">
				<True/>
				<TreeModel functionName="regression" missingValueStrategy="none" noTrueChildStrategy="returnLastPrediction" splitCharacteristic="multiSplit" x-mathContext="float">
					<MiningSchema>
						<MiningField name="CRITICALITY"/>
						<MiningField name="RELIABILITY"/>
						<MiningField name="IMPORTANCE"/>
						<MiningField name="PROVIDED_INTERFACE"/>
						<MiningField name="REQUIRED_INTERFACE"/>
						<MiningField name="REPLICA"/>
						<MiningField name="ADT"/>
					</MiningSchema>
					<Node score="0.28860918">
						<True/>
						<Node score="-4.0045075">
							<SimplePredicate field="PROVIDED_INTERFACE" operator="greaterOrEqual" value="13"/>
							<Node score="10.159205">
								<SimplePredicate field="IMPORTANCE" operator="greaterOrEqual" value="6"/>
								<Node score="5.3927493">
									<SimplePredicate field="PROVIDED_INTERFACE" operator="greaterOrEqual" value="25"/>
									<Node score="17.207525">
										<SimplePredicate field="ADT" operator="greaterOrEqual" value="1.0156028"/>
										<Node score="54.48481">
											<SimplePredicate field="IMPORTANCE" operator="greaterOrEqual" value="12"/>
										</Node>
										<Node score="47.910404">
											<SimplePredicate field="PROVIDED_INTERFACE" operator="greaterOrEqual" value="33"/>
										</Node>
									</Node>
								</Node>
								<Node score="16.250072">
									<SimplePredicate field="IMPORTANCE" operator="greaterOrEqual" value="13"/>
									<Node score="9.847157">
										<SimplePredicate field="PROVIDED_INTERFACE" operator="greaterOrEqual" value="18"/>
										<Node score="37.25038">
											<SimplePredicate field="IMPORTANCE" operator="greaterOrEqual" value="14"/>
										</Node>
									</Node>
									<Node score="8.574528">
										<SimplePredicate field="PROVIDED_INTERFACE" operator="greaterOrEqual" value="16"/>
									</Node>
								</Node>
								<Node score="38.458168">
									<SimplePredicate field="RELIABILITY" operator="greaterOrEqual" value="0.675"/>
								</Node>
								<Node score="0.9878257">
									<SimplePredicate field="ADT" operator="greaterOrEqual" value="1.3561552"/>
								</Node>
							</Node>
							<Node score="4.41927">
								<SimplePredicate field="PROVIDED_INTERFACE" operator="greaterOrEqual" value="27"/>
								<Node score="11.751625">
									<SimplePredicate field="IMPORTANCE" operator="greaterOrEqual" value="2"/>
								</Node>
							</Node>
							<Node score="3.0310538">
								<SimplePredicate field="REQUIRED_INTERFACE" operator="greaterOrEqual" value="1"/>
								<Node score="4.1891336">
									<SimplePredicate field="IMPORTANCE" operator="greaterOrEqual" value="5"/>
									<Node score="11.6802225">
										<SimplePredicate field="PROVIDED_INTERFACE" operator="greaterOrEqual" value="20"/>
									</Node>
								</Node>
								<Node score="-2.40185">
									<SimplePredicate field="REPLICA" operator="greaterOrEqual" value="37"/>
								</Node>
							</Node>
							<Node score="-1.7951493">
								<SimplePredicate field="IMPORTANCE" operator="greaterOrEqual" value="5"/>
							</Node>
						</Node>
						<Node score="-1.2468077">
							<SimplePredicate field="PROVIDED_INTERFACE" operator="greaterOrEqual" value="3"/>
							<Node score="1.4520118">
								<SimplePredicate field="IMPORTANCE" operator="greaterOrEqual" value="15"/>
								<Node score="-0.27608186">
									<SimplePredicate field="REQUIRED_INTERFACE" operator="greaterOrEqual" value="1"/>
									<Node score="10.475621">
										<SimplePredicate field="CRITICALITY" operator="greaterOrEqual" value="7"/>
										<Node score="18.655909">
											<SimplePredicate field="PROVIDED_INTERFACE" operator="greaterOrEqual" value="5"/>
										</Node>
									</Node>
									<Node score="1.5469185">
										<SimplePredicate field="CRITICALITY" operator="greaterOrEqual" value="6"/>
									</Node>
								</Node>
								<Node score="5.150425">
									<SimplePredicate field="PROVIDED_INTERFACE" operator="greaterOrEqual" value="6"/>
								</Node>
							</Node>
							<Node score="-0.68856525">
								<SimplePredicate field="REQUIRED_INTERFACE" operator="greaterOrEqual" value="1"/>
								<Node score="-2.8775887">
									<SimplePredicate field="IMPORTANCE" operator="greaterOrEqual" value="8"/>
									<Node score="5.534074">
										<SimplePredicate field="CRITICALITY" operator="greaterOrEqual" value="6"/>
									</Node>
								</Node>
								<Node score="2.367724">
									<SimplePredicate field="IMPORTANCE" operator="greaterOrEqual" value="3"/>
								</Node>
							</Node>
							<Node score="0.049910907">
								<SimplePredicate field="PROVIDED_INTERFACE" operator="greaterOrEqual" value="6"/>
								<Node score="2.614797">
									<SimplePredicate field="IMPORTANCE" operator="greaterOrEqual" value="7"/>
								</Node>
							</Node>
							<Node score="-3.1734202">
								<SimplePredicate field="IMPORTANCE" operator="greaterOrEqual" value="5"/>
							</Node>
						</Node>
						<Node score="-0.95309067">
							<SimplePredicate field="CRITICALITY" operator="greaterOrEqual" value="10"/>
							<Node score="4.246531">
								<SimplePredicate field="IMPORTANCE" operator="greaterOrEqual" value="13"/>
								<Node score="8.196544">
									<SimplePredicate field="IMPORTANCE" operator="greaterOrEqual" value="15"/>
									<Node score="5.175158">
										<SimplePredicate field="PROVIDED_INTERFACE" operator="greaterOrEqual" value="1"/>
									</Node>
								</Node>
								<Node score="3.2258472">
									<SimplePredicate field="ADT" operator="greaterOrEqual" value="1.2919252"/>
								</Node>
							</Node>
							<Node score="2.4700055">
								<SimplePredicate field="IMPORTANCE" operator="greaterOrEqual" value="4"/>
								<Node score="0.15134738">
									<SimplePredicate field="IMPORTANCE" operator="greaterOrEqual" value="9"/>
								</Node>
							</Node>
							<Node score="0.45348385">
								<SimplePredicate field="IMPORTANCE" operator="greaterOrEqual" value="2"/>
							</Node>
						</Node>
						<Node score="0.36964685">
							<SimplePredicate field="IMPORTANCE" operator="greaterOrEqual" value="14"/>
							<Node score="2.1185756">
								<SimplePredicate field="REQUIRED_INTERFACE" operator="greaterOrEqual" value="2"/>
								<Node score="3.3203363">
									<SimplePredicate field="IMPORTANCE" operator="greaterOrEqual" value="15"/>
								</Node>
							</Node>
							<Node score="1.5870942">
								<SimplePredicate field="IMPORTANCE" operator="greaterOrEqual" value="15"/>
							</Node>
						</Node>
						<Node score="-0.35042122">
							<SimplePredicate field="ADT" operator="greaterOrEqual" value="1.2310648"/>
							<Node score="0.29107657">
								<SimplePredicate field="REQUIRED_INTERFACE" operator="greaterOrEqual" value="2"/>
							</Node>
						</Node>
						<Node score="1.1233834">
							<SimplePredicate field="REQUIRED_INTERFACE" operator="greaterOrEqual" value="2"/>
						</Node>
					</Node>
				</TreeModel>
			</Segment>
			<Segment id="13">
				<True/>
				<TreeModel functionName="regression" missingValueStrategy="none" noTrueChildStrategy="returnLastPrediction" splitCharacteristic="multiSplit" x-mathContext="float">
					<MiningSchema>
						<MiningField name="CRITICALITY"/>
						<MiningField name="RELIABILITY"/>
						<MiningField name="IMPORTANCE"/>
						<MiningField name="PROVIDED_INTERFACE"/>
						<MiningField name="REQUIRED_INTERFACE"/>
						<MiningField name="REPLICA"/>
						<MiningField name="ADT"/>
						<MiningField name="PMax"/>
					</MiningSchema>
					<Node score="-0.3978286">
						<True/>
						<Node score="-1.5707749">
							<SimplePredicate field="PROVIDED_INTERFACE" operator="greaterOrEqual" value="14"/>
							<Node score="30.766535">
								<SimplePredicate field="IMPORTANCE" operator="greaterOrEqual" value="6"/>
								<Node score="18.496159">
									<SimplePredicate field="PROVIDED_INTERFACE" operator="greaterOrEqual" value="24"/>
									<Node score="41.42735">
										<SimplePredicate field="ADT" operator="greaterOrEqual" value="1.423271"/>
									</Node>
									<Node score="38.328323">
										<SimplePredicate field="PROVIDED_INTERFACE" operator="greaterOrEqual" value="33"/>
									</Node>
									<Node score="-1.2925171">
										<SimplePredicate field="ADT" operator="greaterOrEqual" value="1.2413826"/>
									</Node>
								</Node>
								<Node score="14.782189">
									<SimplePredicate field="IMPORTANCE" operator="greaterOrEqual" value="13"/>
									<Node score="32.504898">
										<SimplePredicate field="PROVIDED_INTERFACE" operator="greaterOrEqual" value="18"/>
										<Node score="14.798541">
											<SimplePredicate field="ADT" operator="greaterOrEqual" value="1.3957334"/>
										</Node>
									</Node>
									<Node score="6.2165427">
										<SimplePredicate field="PROVIDED_INTERFACE" operator="greaterOrEqual" value="16"/>
									</Node>
								</Node>
								<Node score="8.196359">
									<SimplePredicate field="CRITICALITY" operator="greaterOrEqual" value="9"/>
									<Node score="0.72882235">
										<SimplePredicate field="PROVIDED_INTERFACE" operator="greaterOrEqual" value="15"/>
									</Node>
								</Node>
							</Node>
							<Node score="2.2058854">
								<SimplePredicate field="PROVIDED_INTERFACE" operator="greaterOrEqual" value="33"/>
								<Node score="12.823142">
									<SimplePredicate field="IMPORTANCE" operator="greaterOrEqual" value="2"/>
								</Node>
							</Node>
							<Node score="-3.103495">
								<SimplePredicate field="IMPORTANCE" operator="greaterOrEqual" value="3"/>
								<Node score="5.253077">
									<SimplePredicate field="REQUIRED_INTERFACE" operator="greaterOrEqual" value="1"/>
									<Node score="0.899631">
										<SimplePredicate field="REPLICA" operator="greaterOrEqual" value="37"/>
									</Node>
								</Node>
								<Node score="-1.0434026">
									<SimplePredicate field="IMPORTANCE" operator="greaterOrEqual" value="5"/>
								</Node>
							</Node>
							<Node score="-2.6858037">
								<SimplePredicate field="REPLICA" operator="greaterOrEqual" value="29"/>
								<Node score="1.4679749">
									<SimplePredicate field="PROVIDED_INTERFACE" operator="greaterOrEqual" value="28"/>
								</Node>
							</Node>
							<Node score="4.144277">
								<SimplePredicate field="PROVIDED_INTERFACE" operator="greaterOrEqual" value="18"/>
							</Node>
						</Node>
						<Node score="-1.3063269">
							<SimplePredicate field="RELIABILITY" operator="greaterOrEqual" value="0.875"/>
							<Node score="5.399808">
								<SimplePredicate field="PROVIDED_INTERFACE" operator="greaterOrEqual" value="9"/>
								<Node score="36.744423">
									<SimplePredicate field="IMPORTANCE" operator="greaterOrEqual" value="5"/>
								</Node>
							</Node>
							<Node score="0.28472024">
								<SimplePredicate field="PROVIDED_INTERFACE" operator="greaterOrEqual" value="5"/>
								<Node score="5.9510546">
									<SimplePredicate field="IMPORTANCE" operator="greaterOrEqual" value="9"/>
									<Node score="12.375265">
										<SimplePredicate field="ADT" operator="greaterOrEqual" value="1.1792526"/>
									</Node>
								</Node>
								<Node score="4.3669047">
									<SimplePredicate field="IMPORTANCE" operator="greaterOrEqual" value="2"/>
								</Node>
							</Node>
							<Node score="5.9188952">
								<SimplePredicate field="IMPORTANCE" operator="greaterOrEqual" value="15"/>
							</Node>
							<Node score="1.153842">
								<SimplePredicate field="IMPORTANCE" operator="greaterOrEqual" value="8"/>
							</Node>
						</Node>
						<Node score="-0.5714459">
							<SimplePredicate field="IMPORTANCE" operator="greaterOrEqual" value="7"/>
							<Node score="3.630346">
								<SimplePredicate field="CRITICALITY" operator="greaterOrEqual" value="9"/>
								<Node score="16.12442">
									<SimplePredicate field="PROVIDED_INTERFACE" operator="greaterOrEqual" value="4"/>
									<Node score="2.6610124">
										<SimplePredicate field="PROVIDED_INTERFACE" operator="greaterOrEqual" value="9"/>
									</Node>
								</Node>
								<Node score="1.3067372">
									<SimplePredicate field="IMPORTANCE" operator="greaterOrEqual" value="9"/>
								</Node>
							</Node>
							<Node score="2.6638339">
								<SimplePredicate field="PROVIDED_INTERFACE" operator="greaterOrEqual" value="9"/>
								<Node score="21.199638">
									<SimplePredicate field="RELIABILITY" operator="greaterOrEqual" value="0.675"/>
								</Node>
							</Node>
							<Node score="0.8315796">
								<SimplePredicate field="CRITICALITY" operator="greaterOrEqual" value="6"/>
							</Node>
						</Node>
						<Node score="0.6547057">
							<SimplePredicate field="IMPORTANCE" operator="greaterOrEqual" value="2"/>
							<Node score="-0.37361595">
								<SimplePredicate field="PMax" operator="greaterOrEqual" value="8.6738205"/>
								<Node score="0.2372954">
									<SimplePredicate field="PMax" operator="greaterOrEqual" value="12.986284"/>
								</Node>
							</Node>
							<Node score="6.808976">
								<SimplePredicate field="PROVIDED_INTERFACE" operator="greaterOrEqual" value="9"/>
							</Node>
						</Node>
						<Node score="-0.78314614">
							<SimplePredicate field="PROVIDED_INTERFACE" operator="greaterOrEqual" value="4"/>
							<Node score="-1.7836659">
								<SimplePredicate field="ADT" operator="greaterOrEqual" value="1.1253173"/>
							</Node>
						</Node>
						<Node score="-1.2435167">
							<SimplePredicate field="CRITICALITY" operator="greaterOrEqual" value="9"/>
						</Node>
					</Node>
				</TreeModel>
			</Segment>
			<Segment id="14">
				<True/>
				<TreeModel functionName="regression" missingValueStrategy="none" noTrueChildStrategy="returnLastPrediction" splitCharacteristic="multiSplit" x-mathContext="float">
					<MiningSchema>
						<MiningField name="CRITICALITY"/>
						<MiningField name="RELIABILITY"/>
						<MiningField name="IMPORTANCE"/>
						<MiningField name="PROVIDED_INTERFACE"/>
						<MiningField name="REQUIRED_INTERFACE"/>
						<MiningField name="REPLICA"/>
						<MiningField name="REQUEST"/>
						<MiningField name="ADT"/>
						<MiningField name="PMax"/>
					</MiningSchema>
					<Node score="-0.17976218">
						<True/>
						<Node score="0.27066463">
							<SimplePredicate field="PROVIDED_INTERFACE" operator="greaterOrEqual" value="14"/>
							<Node score="24.613234">
								<SimplePredicate field="IMPORTANCE" operator="greaterOrEqual" value="6"/>
								<Node score="3.4870973">
									<SimplePredicate field="PROVIDED_INTERFACE" operator="greaterOrEqual" value="24"/>
									<Node score="9.785596">
										<SimplePredicate field="ADT" operator="greaterOrEqual" value="1.2059369"/>
										<Node score="33.456585">
											<SimplePredicate field="REPLICA" operator="greaterOrEqual" value="19"/>
										</Node>
										<Node score="1.9512086">
											<SimplePredicate field="IMPORTANCE" operator="greaterOrEqual" value="9"/>
										</Node>
									</Node>
									<Node score="-3.253583">
										<SimplePredicate field="ADT" operator="greaterOrEqual" value="1.1409696"/>
									</Node>
									<Node score="16.386465">
										<SimplePredicate field="REPLICA" operator="greaterOrEqual" value="4"/>
									</Node>
								</Node>
								<Node score="-0.36036256">
									<SimplePredicate field="IMPORTANCE" operator="greaterOrEqual" value="13"/>
									<Node score="27.15696">
										<SimplePredicate field="PROVIDED_INTERFACE" operator="greaterOrEqual" value="18"/>
										<Node score="11.854199">
											<SimplePredicate field="REPLICA" operator="greaterOrEqual" value="34"/>
										</Node>
									</Node>
									<Node score="9.796966">
										<SimplePredicate field="CRITICALITY" operator="greaterOrEqual" value="9"/>
									</Node>
								</Node>
								<Node score="4.5753">
									<SimplePredicate field="CRITICALITY" operator="greaterOrEqual" value="9"/>
									<Node score="-2.823638">
										<SimplePredicate field="IMPORTANCE" operator="greaterOrEqual" value="10"/>
									</Node>
								</Node>
							</Node>
							<Node score="1.8750046">
								<SimplePredicate field="PROVIDED_INTERFACE" operator="greaterOrEqual" value="33"/>
								<Node score="10.258515">
									<SimplePredicate field="IMPORTANCE" operator="greaterOrEqual" value="2"/>
								</Node>
							</Node>
							<Node score="9.61854">
								<SimplePredicate field="RELIABILITY" operator="greaterOrEqual" value="0.675"/>
							</Node>
							<Node score="1.3850455">
								<SimplePredicate field="IMPORTANCE" operator="greaterOrEqual" value="5"/>
								<Node score="7.4549117">
									<SimplePredicate field="PROVIDED_INTERFACE" operator="greaterOrEqual" value="20"/>
								</Node>
							</Node>
							<Node score="3.7495663">
								<SimplePredicate field="PROVIDED_INTERFACE" operator="greaterOrEqual" value="27"/>
							</Node>
						</Node>
						<Node score="13.748477">
							<SimplePredicate field="PROVIDED_INTERFACE" operator="greaterOrEqual" value="5"/>
							<Node score="26.838514">
								<SimplePredicate field="REQUIRED_INTERFACE" operator="greaterOrEqual" value="2"/>
							</Node>
							<Node score="6.8291593">
								<SimplePredicate field="PMax" operator="greaterOrEqual" value="11.839912"/>
								<Node score="-0.19427887">
									<SimplePredicate field="IMPORTANCE" operator="greaterOrEqual" value="8"/>
									<Node score="2.4252942">
										<SimplePredicate field="PROVIDED_INTERFACE" operator="greaterOrEqual" value="7"/>
									</Node>
								</Node>
								<Node score="-0.49489415">
									<SimplePredicate field="REQUEST" operator="greaterOrEqual" value="14"/>
								</Node>
							</Node>
							<Node score="7.7204547">
								<SimplePredicate field="PROVIDED_INTERFACE" operator="greaterOrEqual" value="9"/>
								<Node score="35.24206">
									<SimplePredicate field="IMPORTANCE" operator="greaterOrEqual" value="12"/>
								</Node>
							</Node>
							<Node score="2.677718">
								<SimplePredicate field="RELIABILITY" operator="greaterOrEqual" value="0.675"/>
							</Node>
						</Node>
						<Node score="0.5418832">
							<SimplePredicate field="IMPORTANCE" operator="greaterOrEqual" value="15"/>
							<Node score="12.853788">
								<SimplePredicate field="PROVIDED_INTERFACE" operator="greaterOrEqual" value="3"/>
								<Node score="3.7679584">
									<SimplePredicate field="REQUEST" operator="greaterOrEqual" value="204"/>
									<Node score="6.8934026">
										<SimplePredicate field="REQUEST" operator="greaterOrEqual" value="868"/>
									</Node>
								</Node>
							</Node>
							<Node score="5.583145">
								<SimplePredicate field="CRITICALITY" operator="greaterOrEqual" value="9"/>
								<Node score="2.7719457">
									<SimplePredicate field="PROVIDED_INTERFACE" operator="greaterOrEqual" value="1"/>
								</Node>
							</Node>
							<Node score="1.5338285">
								<SimplePredicate field="CRITICALITY" operator="greaterOrEqual" value="8"/>
							</Node>
						</Node>
						<Node score="-2.1310885">
							<SimplePredicate field="REQUIRED_INTERFACE" operator="greaterOrEqual" value="5"/>
							<Node score="0.72058755">
								<SimplePredicate field="ADT" operator="greaterOrEqual" value="1.2721792"/>
								<Node score="2.186133">
									<SimplePredicate field="IMPORTANCE" operator="greaterOrEqual" value="12"/>
								</Node>
							</Node>
							<Node score="2.4708908">
								<SimplePredicate field="REPLICA" operator="greaterOrEqual" value="3"/>
							</Node>
						</Node>
						<Node score="0.3047935">
							<SimplePredicate field="CRITICALITY" operator="greaterOrEqual" value="8"/>
							<Node score="5.201593">
								<SimplePredicate field="PROVIDED_INTERFACE" operator="greaterOrEqual" value="4"/>
							</Node>
						</Node>
						<Node score="-1.7135028">
							<SimplePredicate field="RELIABILITY" operator="greaterOrEqual" value="0.675"/>
						</Node>
					</Node>
				</TreeModel>
			</Segment>
			<Segment id="15">
				<True/>
				<TreeModel functionName="regression" missingValueStrategy="none" noTrueChildStrategy="returnLastPrediction" splitCharacteristic="multiSplit" x-mathContext="float">
					<MiningSchema>
